tree
version=v4
num_class=1
num_tree_per_iteration=1
label_index=0
max_feature_idx=19
objective=regression
feature_names=lag_1 lag_7 lag_28 rolling_mean_7 rolling_mean_28 rolling_std_7 sell_price price_change temp_max_c temp_min_c precipitation_mm is_holiday days_to_next_holiday weekday month year is_weekend item_id store_id state_id
feature_infos=[0:495] [0:376] [0:263] [0:294] [0:249.71428571428572] [0:121.57576512885562] [0.05000000074505806:9.9700002670288086] [-1.4099998474121094:0.90000009536743164] [-21.899999999999999:40.799999999999997] [-29.5:27.699999999999999] [0:132.80000000000001] [0:1] [0:104] [0:6] [1:12] [2011:2016] [0:1] -1:24:14:11:47:33:35:45:0:17:41:37:6:1:18:46:9:29:49:22:4:5:3:13:44:26:34:36:43:31:42:8:28:12:19:30:40:7:15:21:27:48:16:25:10:38:32:20:39:2:23:160:289:196:275:117:191:106:227:287:55:78:200:224:283:130:265:155:204:297:203:207:230:84:128:154:239:240:266:54:56:199:205:226:256:277:70:75:146:243:299:93:97:115:167:248:254:281:135:141:147:174:177:264:99:121:140:176:262:273:276:76:86:91:94:98:149:180:189:259:274:285:286:87:110:112:127:166:197:294:50:120:131:158:163:165:208:215:237:244:267:272:296:90:103:111:157:164:173:178:209:214:216:269:270:292:79:81:102:143:144:162:188:218:53:92:122:151:159:182:195:234:52:59:66:71:85:89:107:129:148:161:171:181:183:190:231:242:278:280:295:64:73:105:124:152:186:202:219:232:233:255:271:279:63:69:77:118:123:134:153:169:170:179:229:235:245:250:258:293:65:67:82:139:175:201:222:241:252:62:100:132:198:210:236:253:61:83:108:116:119:187:192:211:247:288:60:95:104:137:138:142:212:260:68:72:126:221:223:225:228:249:251:257:263:291:109:114:145:220:261:282:133:213:217:246:284:298:51:58:80:136:185:290:168:88:150:156:193:74:184:194:238:57:125:268 -1:1:0:2:9:3:8:7:4:5:6 -1:0:2:1
tree_sizes=5167 5381 5283 5435 5375 5516 5474 5609 5322 5375 5655 5610 5562 5690 5625 5587 5680 5450 5489 5708 5385 5703 5724 5881 5674 5391 5802 5811 5381 5388 5884 5887 5980 5420 5831 5913 5830 5933 5951 6016 5371 5877 5434 5853 5873 5797 5981 6080 5927 5896 5942 5417 5859 5982 5906 5431 5931 5998 5848 5820 5870 5979 5917 5768 5441 6030 5953 5472 5856 5924 5944 6218 5864 5894 5970 5993 5678 5846 5439 5715 5836 5781 5510 5769 5899 6105 6018 5510 5707 5968 6190 5837 6258 6083 5536 6077 5540 5884 5820 5526 6254 5776 6140 5722 5671 5766 5665 5868 5472 5516 5731 6011 5948 6031 5486 5459 5942 5809 5522 5764 5918 5865 5850 5701 5813 5851 5813 5457 5951 5838 5868 5731 5755 5645 5485 5884 5513 5861 5883 5865 5743 5714 5804 5836 6111 5472 5889 6251 5666 5762 5843 5817 5792 5790 5826 5487 5829 5823 6034 5856 5870 5892 6019 5753 5703 5860 6107 6075 5833 5519 5792 5894 5774 5938 5826 5721 5802 5716 5774 5719 5876 6056 5872 6048 5692 5810 5739 5792 5546 6097 5531 5873 6040 5820 5947 6133 6149 6147 6031 6195 5745 5761 5766 5819 5752 5441 5500 5853 5871 5840 5954 5906 5434 5903 5833 5563 5741 5527 5555 5795 5777 5836 5652 5738 5558 5802 5926 5832 5827 5903 5917 5798 6045 5505 5532 5502 5960 6103 5560 5794 5808 5834 5842 5871 6102 5846 5922 5467 5750 5446 5812 6131 5862 5730 5793 5878 6125 5476 5733 6296 5487 5862 5890 5807 5553 5992 5911 5424 5853 5513 5770 5874 5761 5812 5783 5810 6119 5802 5543 5897 5951 5924 5824 5504 5815 5815 5943 5756 5839 5825 5932 5907 5915 5885 5909 6045 5996 5970 5518 6075

Tree=0
num_leaves=63
num_cat=0
split_feature=3 0 3 0 0 0 3 10 3 4 9 3 3 9 3 0 3 0 3 3 3 4 15 3 2 9 3 3 3 5 0 2 0 13 3 0 3 9 3 14 14 0 5 14 14 4 4 13 9 0 13 0 13 2 4 2 13 13 15 4 0 5
split_gain=1.58768e+06 397116 341985 128199 71808.9 61347.9 59900.5 34376.7 26369.9 17161.4 15875.6 11488.2 11019.4 14137.9 10718 9374.33 8737.3 7949.48 7930.29 6530.21 6364.37 5273.44 4807.98 4666.86 4191.28 4082.81 3214.76 2658.67 2637.46 2478.83 2382.51 2379.7 2159.76 1885.84 1836.63 1793.25 1696.35 1664.52 1467.84 1435.04 1414.13 1398.09 1946.88 1358.6 1326.68 1320.67 1286.36 1239.57 1170.06 1160.57 1153.39 1144.91 1074.13 1003.25 992.861 937.428 929.016 900.891 771.229 877.898 747.803 1027.5
threshold=21.148532672265151 76.302575100949767 7.7205642931622798 44.038414431628674 118.00000000000001 16.00316295374412 3.2862371741536363 24.650000000000002 34.737918435063285 36.267857142857146 -8.4499999999999975 0.9979396986541057 62.868984495988876 -12.35 56.324590878622885 11.000542231563253 26.911170525619063 22.977559332455233 5.5721285809437555 28.894209828023659 12.572950214889188 18.043730123016452 2015.5000000000002 13.486673852670188 31.500000000000004 -12.35 10.714406994484172 31.323726708877025 32.985272418142465 17.271638617403877 0.99680357479055581 49.500000000000007 27.835425257310764 1.0000000180025095e-35 12.142981419240149 15.997754250334681 22.084324240012965 24.050000000000004 17.148194965872221 6.5000000000000009 6.5000000000000009 5.0017111549345445 6.8016102283506621 6.5000000000000009 6.5000000000000009 6.2173173622234419 2.8587299437231555 4.5000000000000009 -12.35 4.2517632309916999 1.0000000180025095e-35 12.626451005398236 3.5000000000000004 22.500000000000004 10.394894100928019 8.9777363454182435 1.5000000000000002 5.5000000000000009 2015.5000000000002 12.048382380765853 1.9995826824576326 6.1653861946955493
decision_type=2 2 2 2 2 2 2 8 2 2 10 2 2 10 2 2 2 2 2 2 2 2 2 2 2 10 2 2 2 2 2 2 2 2 2 2 2 8 2 2 2 2 2 2 2 2 2 2 10 2 2 2 2 2 2 2 2 2 2 2 2 2
left_child=2 3 6 7 14 15 11 9 22 19 17 -1 13 21 -3 26 36 34 41 33 57 -10 -5 25 50 39 49 -24 -18 44 -28 -11 -21 -2 -7 -35 -9 45 -19 -17 -36 -8 -43 -39 -15 -20 -13 56 55 -4 -22 -45 -23 -50 -27 -25 -34 -12 59 -32 -47 -62
right_child=1 4 5 8 -6 10 18 16 12 31 20 46 -14 29 -16 23 28 38 37 32 24 52 27 48 -26 54 30 -29 -30 -31 58 -33 47 35 40 -37 -38 43 -40 -41 -42 42 -44 51 -46 60 -48 -49 53 -51 -52 -53 -54 -55 -56 -57 -58 -59 -60 -61 61 -63
leaf_value=7.066319216151169 8.5152290128908756 10.734507905237667 7.3823159751251648 8.6022131384053857 14.636984249461044 7.8829135182630905 7.2646649729080979 8.643206168167584 9.8936726712049303 8.8928840008452621 7.5903123923752922 7.1604132883132818 11.172683953278057 9.6487409203775645 12.107012756167101 7.5964913818965858 9.3696504719402487 8.2967001851656725 7.3259701461715752 8.3508829347075455 8.1081329878418877 10.538192100629939 9.0854768162858051 8.2448234308716142 8.4758242498200396 7.4952970228468239 7.2290899978901164 9.7303202938500455 9.989029043190472 9.9658883406860923 7.5518784521105031 9.4627290147641645 8.8299909194945325 7.8935325772653444 7.8852128849827174 8.1950296752852534 9.0191067809390937 7.3751821483126383 8.5523630534710176 7.8288791817118568 8.186429249891086 7.3164838520716611 7.6749899766679217 7.4997343788365871 9.1499909195828355 7.27760994564487 7.2138058949046613 9.0101191245887744 7.7698503439993951 7.5042574881565045 7.8695672744289453 7.8866183767247122 10.952411775055664 8.0408436269023174 7.6497631604096377 7.8861703166890065 8.4504075852560909 7.8763450767065502 7.7820313061750381 7.6821594298931046 7.4167688539835943 7.6333242363262102
leaf_weight=4196 35 25 241 27 27 107 2748 41 27 53 197 3438 25 24 33 87 55 104 771 71 61 34 33 35 36 294 37 31 25 26 249 28 27 64 48 215 112 270 122 281 207 1306 39 436 30 84 1679 26 166 1025 299 20 29 43 161 38 40 32 85 269 629 60
leaf_count=4196 35 25 241 27 27 107 2748 41 27 53 197 3438 25 24 33 87 55 104 771 71 61 34 33 35 36 294 37 31 25 26 249 28 27 64 48 215 112 270 122 281 207 1306 39 436 30 84 1679 26 166 1025 299 20 29 43 161 38 40 32 85 269 629 60
internal_value=7.42097 9.21665 7.31603 8.95721 12.507 7.71533 7.20843 8.62954 9.86457 8.41687 8.01555 7.12764 10.1926 10.0484 11.5154 7.59439 9.13978 8.20204 7.32668 8.30283 7.8401 10.4783 9.16176 7.71026 7.96143 7.65011 7.52721 9.39782 9.56321 9.56478 7.61854 9.08987 8.55855 8.16927 8.05678 8.12587 8.91838 7.40163 8.43471 7.77394 8.12973 7.28511 7.32688 7.46407 9.37166 7.37227 7.17793 8.71709 7.8858 7.48104 7.90999 7.5167 10.7289 7.8256 7.54995 8.05813 8.60337 7.63028 7.64244 7.61953 7.41846 7.43563
internal_weight=21063 1163 19900 1078 85 4224 15676 792 286 559 1213 9313 195 170 58 3011 233 588 6363 478 625 90 91 1105 396 823 1906 64 80 80 640 81 164 314 362 279 153 2270 226 368 255 4093 1345 726 54 1544 5117 93 282 1266 360 456 63 209 455 73 67 229 603 518 773 689
internal_count=21063 1163 19900 1078 85 4224 15676 792 286 559 1213 9313 195 170 58 3011 233 588 6363 478 625 90 91 1105 396 823 1906 64 80 80 640 81 164 314 362 279 153 2270 226 368 255 4093 1345 726 54 1544 5117 93 282 1266 360 456 63 209 455 73 67 229 603 518 773 689
is_linear=0
shrinkage=1


Tree=1
num_leaves=63
num_cat=2
split_feature=3 3 3 10 12 3 3 3 1 3 8 1 3 3 1 3 16 8 14 14 3 2 3 4 2 3 2 3 5 3 16 3 17 3 13 5 3 3 3 4 5 5 8 4 13 8 4 1 3 4 14 6 5 8 4 4 19 5 15 16 12 6
split_gain=1.43288e+06 344614 308641 94169.5 64818.3 61478 54060.2 51060.9 49767.3 32857.3 24460.5 10696.7 10368.1 9529.58 9335.11 7201.86 6469.98 6241.36 5380.38 4886.1 4758.23 4183.53 3570.41 2718.58 2628.25 2576.31 2421.08 2386.23 2055.13 1914.74 1805.1 1781.53 1686.5 1596.15 1591.04 1319.33 1263.33 1251.6 1195.37 1160.94 1159.26 1083.57 1064.61 1186.1 966.058 960.127 961.787 921.42 918.352 916.097 912.533 906.43 904.79 896.719 876.429 884.217 841.193 896.703 822.582 748.347 741.018 739.804
threshold=21.148532672265151 56.324590878622885 7.7205642931622798 24.650000000000002 4.5000000000000009 37.500000000000007 3.2862371741536363 12.430413441375327 48.168003027763099 34.737918435063285 39.500000000000007 79.500000000000014 0.9979396986541057 26.911170525619063 57.327562132858553 5.1449048401599731 1.0000000180025095e-35 -8.3499999999999996 6.5000000000000009 6.5000000000000009 16.870275760477991 22.500000000000004 46.551501545015491 31.410714285714288 8.9777363454182435 9.5733895617317462 21.477446297332239 49.126037145114928 18.557867669826525 32.293622129357367 1.0000000180025095e-35 17.148194965872221 0 22.915174498803719 1.0000000180025095e-35 8.5613256384846235 26.911170525619063 9.4315996053209687 28.036377798812115 2.8587299437231555 6.4677653264406905 3.742005198794049 37.850000000000001 6.2173173622234419 4.5000000000000009 24.950000000000003 36.267857142857146 31.037924345375103 13.885709012080349 11.396375559040694 6.5000000000000009 1.2649999856948855 9.8576333242341381 24.450000000000003 13.470777695778059 3.2505983671679206 1 10.282699687960916 2013.5000000000002 1.0000000180025095e-35 7.5000000000000009 0.92500001192092907
decision_type=2 2 2 8 10 2 2 2 2 2 8 2 2 2 2 2 2 10 2 2 2 2 2 2 2 2 2 2 2 2 2 2 9 2 2 2 2 2 2 2 2 2 8 2 2 10 2 2 2 2 2 10 2 10 2 2 1 2 2 2 10 10
left_child=2 3 6 9 8 13 12 17 -3 16 21 -6 -1 33 27 -8 23 19 -12 -4 41 30 -7 28 54 -21 47 44 36 -15 31 49 40 -5 35 -23 53 -26 -28 -14 -17 -20 43 59 45 -11 -47 -18 -32 -9 -44 61 -38 -2 55 -19 -55 -58 -25 -34 -50 -36
right_child=1 4 7 5 11 22 15 10 -10 14 18 -13 39 29 -16 32 26 24 20 25 -22 34 -24 58 37 -27 38 -29 -30 -31 48 -33 42 -35 51 -37 52 -39 -40 -41 -42 -43 50 -45 -46 46 -48 -49 60 -51 -52 -53 -54 56 -56 -57 57 -59 -60 -61 -62 -63
leaf_value=-0.33365429863910784 0.49453083890325883 4.2430026676343839 0.097382220781786502 1.2216253462291899 2.8443824437948373 2.915138613988483 -0.1343772480710094 0.10834636908510459 7.6096295856294178 1.4311759483814239 0.39661080325827186 4.125297628130232 -0.24426493985169914 1.8232663076064168 2.3658064229147775 0.043554585692621606 0.61026789009571081 0.33912361303101418 0.57982608015819259 0.23910743355536118 1.0554716858921982 0.58773698419332498 3.5571422923694964 0.87349244143281668 0.091732158544626866 0.45922445100869108 1.170220770480785 1.8800363187436706 0.27850123286247253 2.1904023842733418 0.2849852645536885 0.39481069819992459 -0.12553390368082368 1.5455165634552639 0.5466237797339758 1.1325754609704017 1.0365162809689841 0.21576247133007539 1.5784275498883478 -0.19354195886509556 0.42384927528245114 0.78353561118041004 -0.052151949176309158 -0.016972779730341787 1.5935107819736005 0.84853543683886523 1.3330164023808071 1.0655913300514221 0.30954143689835778 0.26450620227220922 0.077305337993511039 0.60189596533775336 0.720257929940613 0.58150743973942898 0.35939137999500548 0.025312665076547444 0.71165404071410499 1.1292170822620393 1.2680845708847048 -0.033492270958160375 0.57719751149415977 0.2181605252623558
leaf_weight=4196 68 23 293 63 39 63 3503 138 21 45 81 28 3438 85 35 438 20 23 93 260 164 25 33 28 364 272 47 27 30 61 64 201 728 96 30 20 42 461 29 1679 21 219 255 809 32 20 21 25 34 294 292 85 49 52 21 934 36 20 25 317 108 40
leaf_count=4196 68 23 293 63 39 63 3503 138 21 45 81 28 3438 85 35 438 20 23 93 260 164 25 33 28 364 272 47 27 30 61 64 201 728 96 30 20 42 461 29 1679 21 219 255 809 32 20 21 25 34 294 292 85 49 52 21 934 36 20 25 317 108 40
internal_value=0.00326594 1.70916 -0.0964301 1.42958 4.35883 2.03233 -0.198645 0.282908 5.8498 1.0583 0.505982 3.37969 -0.275395 1.685 1.63291 -0.0863128 0.838708 0.147434 0.773323 0.261345 0.837427 0.362662 3.13583 0.729748 0.0953112 0.351648 1.15388 1.456 0.670881 1.97666 0.313676 0.271838 -0.0274422 1.41718 0.568156 0.829887 0.714969 0.161039 1.32598 -0.227622 0.059654 0.722815 -0.0441569 -0.0624254 1.35898 1.27171 1.09668 0.863225 0.442237 0.214622 0.016955 0.49217 0.866223 0.636763 0.0398661 0.0328546 0.726317 0.860784 1.05962 -0.0976131 0.513111 0.35893
internal_weight=21063 1163 19900 1052 111 401 15676 4224 44 651 1596 67 9313 305 180 6363 471 2628 557 825 476 1039 96 350 1803 532 121 145 297 146 839 633 2860 159 200 45 267 825 76 5117 459 312 2401 1854 118 86 41 45 206 432 547 155 91 176 978 957 108 56 53 1045 142 70
internal_count=21063 1163 19900 1052 111 401 15676 4224 44 651 1596 67 9313 305 180 6363 471 2628 557 825 476 1039 96 350 1803 532 121 145 297 146 839 633 2860 159 200 45 267 825 76 5117 459 312 2401 1854 118 86 41 45 206 432 547 155 91 176 978 957 108 56 53 1045 142 70
cat_boundaries=0 9 10
cat_threshold=1164386818 209948 2097152 4096 134217728 0 0 604014592 320 1
is_linear=0
shrinkage=0.05


Tree=2
num_leaves=63
num_cat=0
split_feature=3 0 3 0 0 0 3 10 3 4 9 3 3 3 8 0 3 0 3 3 3 4 10 3 2 9 3 1 3 5 1 2 3 0 3 3 3 9 0 4 3 14 14 14 0 5 5 8 0 0 15 1 8 9 0 4 2 2 2 5 4 0
split_gain=1.29317e+06 327884 278549 104757 59926.1 51151.2 48954.9 28247.4 21329.2 13763.3 12643.3 10918.2 8669.73 8638.59 11522.2 7942.87 7072.32 6584.01 5285.02 5235.37 5076.44 4447.69 3829.38 3810.26 3598.88 3360.95 2572.85 2493.31 2425.92 2273.57 2193.43 2178.52 2128.69 1533.8 1464.37 1436.3 1420.22 1406.29 1256.11 1183.09 1169.23 1155.16 1151.33 1116.52 1101.91 1653.77 1058.86 1057.94 1026.98 1009.65 982.381 965.804 962.897 956.855 894.586 836.701 828.812 794.901 789.775 781.14 777.142 707.347
threshold=21.148532672265151 76.302575100949767 7.7205642931622798 44.038414431628674 118.00000000000001 16.00316295374412 3.5721693545820776 24.650000000000002 34.737918435063285 36.267857142857146 -8.4499999999999975 0.9979396986541057 56.324590878622885 62.868984495988876 1.4500000000000002 11.000542231563253 26.911170525619063 22.977559332455233 28.894209828023659 12.572950214889188 5.5721285809437555 18.043730123016452 5.9500000000000011 13.486673852670188 31.500000000000004 -12.35 10.714406994484172 52.500000000000007 31.323726708877025 15.181441009390346 41.140805279481533 48.500000000000007 32.985272418142465 15.997754250334681 12.142981419240149 2.1435395322714319 22.084324240012965 24.050000000000004 28.741475737599398 7.8228412079817193 17.148194965872221 6.5000000000000009 6.5000000000000009 6.5000000000000009 5.0912365528755261 6.8016102283506621 13.730125074967523 29.050000000000004 12.626451005398236 4.2517632309916999 2012.5000000000002 27.00826700795141 28.350000000000005 -12.35 56.124547899013059 10.394894100928019 22.500000000000004 5.8780814503901135 8.9777363454182435 11.17258868773416 28.048639440758958 21.986864031517694
decision_type=2 2 2 2 2 2 2 8 2 2 10 2 2 2 10 2 2 2 2 2 2 2 8 2 2 10 2 2 2 2 2 2 2 2 2 2 2 8 2 2 2 2 2 2 2 2 2 10 2 2 2 2 8 10 2 2 2 2 2 2 2 2
left_child=2 3 6 7 12 15 11 9 22 18 17 -1 -3 14 21 26 36 34 33 -12 44 -10 -5 25 46 41 49 59 -24 52 38 47 -18 50 -7 -13 -9 39 60 -22 -19 -17 -39 -36 -8 -46 -21 -16 -44 -4 -2 57 -28 58 -23 -27 -55 -35 -25 -11 -20 -53
right_child=1 4 5 8 -6 10 20 16 13 27 19 35 -14 -15 31 23 32 40 30 24 37 54 28 53 -26 55 29 -29 -30 -31 -32 -33 -34 51 43 -37 -38 42 -40 -41 -42 -43 48 -45 45 -47 -48 -49 -50 -51 -52 61 -54 56 -56 -57 -58 -59 -60 -61 -62 -63
leaf_value=-0.31697159939693259 0.70805441232828004 3.005341235637665 -0.036896665944598027 1.0341649914781252 6.5592980066935231 0.42187723000751476 -0.13122804407545127 1.1033070011836725 2.2267060456452548 1.5705498967851912 0.1960241440203708 -0.2383395111038171 4.2397523244222013 3.3709632720947269 1.4850231806437175 0.16377892602762295 1.7613444883173164 0.79789592038589319 0.5947438857052475 0.42527656262990698 -0.061990476729410687 2.7174576663970949 1.4910327368312413 0.75079966919762753 0.97302459196911928 0.069588074468228275 0.15264385247823575 1.9421963245972345 2.0944435827193724 -0.2543724998831749 1.3656756214998866 2.2424096531727735 2.3177866048812867 0.37348880723118782 0.42499570293972894 -0.18822839873334821 1.4472544987286842 -0.038393101875101115 1.0793754832311111 0.050070529247409318 1.0260761255123576 0.37227742141941267 0.075815083541464934 0.69264629689823609 -0.082655743508548554 0.24827828330871388 0.76260198229551324 1.965047084201466 0.44223170133307577 0.076840577372031788 0.31698556095361713 0.66271257667491845 0.28422036651156357 0.31848718180848534 3.1222218225168632 0.21138743635799206 0.56479762792587285 0.70880458249318368 0.421601645413198 1.1887481908540469 0.95210806082548771 0.99293868604302404
leaf_weight=4196 26 25 241 24 27 107 2223 41 27 21 229 2618 33 25 24 87 55 104 32 335 1254 20 36 35 36 294 397 23 31 29 37 34 25 20 48 3151 112 270 66 290 122 281 436 207 1179 39 25 22 20 1025 42 24 214 166 43 161 43 152 38 37 29 50
leaf_count=4196 26 25 241 24 27 107 2223 41 27 21 229 2618 33 25 24 87 55 104 32 335 1254 20 36 35 36 294 397 23 31 29 37 34 25 20 48 3151 112 270 66 290 122 281 436 207 1179 39 25 22 20 1025 42 24 214 166 43 161 43 152 38 37 29 50
internal_value=0.00310264 1.6237 -0.0916086 1.38795 4.61349 0.268762 -0.188713 1.09176 2.20818 0.898981 0.542895 -0.255604 3.70768 2.50315 2.37553 0.158326 1.55428 0.709321 0.796851 0.386322 -0.0719961 2.76362 1.5761 0.264982 0.496368 0.210633 0.0964929 1.50168 1.77022 0.178197 1.0269 1.93892 1.93523 0.676697 0.577123 -0.210969 1.35509 -0.0139567 0.928203 -0.0409427 0.921073 0.322986 0.0434351 0.642265 -0.110284 -0.0720593 0.448702 1.7146 0.091886 0.0551892 0.466512 0.734797 0.198728 0.423596 2.99373 0.119763 0.369163 0.669814 0.579436 1.32699 0.764638 0.885838
internal_weight=21063 1163 19900 1078 85 4224 15676 792 286 559 1213 9965 58 195 170 3011 233 588 478 625 5711 90 91 1105 396 823 1906 81 67 640 164 80 80 314 362 5769 153 2270 127 1544 226 368 726 255 3441 1218 360 46 456 1266 68 246 611 282 63 455 209 172 73 58 61 74
internal_count=21063 1163 19900 1078 85 4224 15676 792 286 559 1213 9965 58 195 170 3011 233 588 478 625 5711 90 91 1105 396 823 1906 81 67 640 164 80 80 314 362 5769 153 2270 127 1544 226 368 726 255 3441 1218 360 46 456 1266 68 246 611 282 63 455 209 172 73 58 61 74
is_linear=0
shrinkage=0.05


Tree=3
num_leaves=63
num_cat=2
split_feature=3 0 3 0 3 0 3 12 3 4 12 3 3 12 3 0 3 3 0 3 3 3 12 3 9 3 5 1 4 1 2 0 9 5 1 3 3 3 13 0 0 4 2 2 3 9 4 3 17 4 1 0 3 4 6 0 5 4 0 17 3 5
split_gain=1.16709e+06 295916 251390 94542.8 55004.9 46164 44181.8 25956.8 19249.6 12515.1 12245.3 9986.32 9853.68 8010.84 11494.1 7212.88 6957.06 6570.96 6428.09 4688.72 4640.36 4581.49 4013.23 4011.09 2673.72 2362.18 2326.24 2299.14 2286.1 2023.79 1748.72 1714.27 1691.11 1661.69 1753.4 1570.98 1508.2 1499.94 1498.93 1435.58 1376.22 1343.84 1308.29 1304.53 1304.36 1289.2 1271.84 1146.38 1076.07 1072.39 1058.27 1042.91 1031.87 945.609 841.77 817.406 838.88 807.739 797.93 784.899 1069.79 777.582
threshold=21.148532672265151 76.302575100949767 7.7205642931622798 44.038414431628674 91.063168582822883 16.00316295374412 3.5721693545820776 97.500000000000014 34.737918435063285 36.267857142857146 84.500000000000014 56.324590878622885 0.9979396986541057 77.500000000000014 62.868984495988876 8.9987303557369049 26.911170525619063 46.551501545015491 22.977559332455233 28.894209828023659 12.292655201738027 5.5721285809437555 35.500000000000007 13.486673852670188 -12.35 32.985272418142465 17.271638617403877 52.500000000000007 18.043730123016452 41.140805279481533 30.500000000000004 0.99680357479055581 27.550000000000004 8.6945521000493429 6.9925004731526652 17.148194965872221 12.142981419240149 31.323726708877025 1.0000000180025095e-35 15.997754250334681 2.3156437345073271 7.5618003180114934 23.500000000000004 6.9882060491234999 22.915174498803719 27.250000000000004 6.8216698001193121 9.4315996053209687 0 20.0848342299394 2.9995016368915079 28.741475737599398 9.144023963196874 8.3572777060931163 0.9350000023841859 5.0912365528755261 6.9023803262464343 28.048639440758958 8.7602744926094349 1 1.5704490778029692 6.4677653264406905
decision_type=2 2 2 2 2 2 2 8 2 2 8 2 2 8 2 2 2 2 2 2 2 2 8 2 10 2 2 2 2 2 2 2 8 2 2 2 2 2 2 2 2 2 2 2 2 8 2 2 9 2 2 2 2 2 10 2 2 2 2 9 2 2
left_child=2 3 6 7 11 15 12 9 22 19 23 -3 -1 14 26 31 44 28 36 38 24 48 -5 33 41 -18 -10 -11 -15 51 50 -4 42 -7 54 -20 -12 -24 -2 -40 59 52 -22 -26 -9 46 -23 -33 61 -30 -25 57 -17 -34 -35 -50 -57 -21 -47 60 -14 -8
right_child=1 4 5 8 -6 10 21 16 13 27 18 -13 40 17 -16 20 25 -19 35 29 32 45 37 30 43 -27 -28 -29 49 -31 -32 47 53 34 -36 -37 -38 -39 39 -41 -42 -43 -44 -45 -46 58 -48 -49 55 -51 -52 -53 -54 -55 -56 56 -58 -59 -60 -61 -62 -63
leaf_value=-0.30112301202595693 0.95129729086799275 2.855074155807495 -0.14927854343938332 0.87167274653911597 6.5351988445628777 0.13558246384864966 -0.035472305752825686 1.1104636132717134 1.5916414496471298 1.2606374107558151 0.39068707363297817 4.1417857019524824 0.24869920824255265 2.1153707892806444 3.0510889219201132 0.2229062008857727 1.6841181578459563 3.4664471019398087 0.74443615236703087 0.5488228516472925 0.24943388945700484 -0.069714464806376414 1.4532227297086973 0.76153569305720537 0.015566036131390385 2.2802897512912752 2.1767506141662598 1.8514055956964908 2.9582710493178599 1.2973918098050197 0.80675455995968415 0.021115906239973142 0.72725259444930346 0.40063239930440553 0.12798739874269813 1.0098314979212073 0.61483459487151548 1.9132632115307979 0.39629041203879756 0.6660501315843228 -0.17167159996355205 0.16076032011699765 0.48074103973499716 0.15024826234890795 1.4078345562075523 0.0097890766170971536 0.02141199659383455 0.12462419766469757 -0.13251759821018994 2.4690143148104351 0.40961475660031044 1.0125627772773014 0.41819865818066088 0.41137268138783317 0.83324366862123667 -0.086366618305000642 0.17751912676518966 0.91276213357845948 0.13195118006235226 -0.22552177082232716 -0.14804470681407478 0.2794943091415224
leaf_weight=4196 35 25 96 20 22 190 293 62 53 58 106 38 21 27 23 130 54 22 102 31 376 1046 37 23 284 24 25 23 21 37 35 552 33 23 32 123 257 34 64 215 2418 233 73 490 91 425 604 519 2039 24 300 68 141 84 22 1057 31 30 195 3241 89 21
leaf_count=4196 35 25 96 20 22 190 293 62 53 58 106 38 21 27 23 130 54 22 102 31 376 1046 37 23 284 24 25 23 21 37 35 552 33 23 32 123 257 34 64 215 2418 233 73 490 91 425 604 519 2039 24 300 68 141 84 22 1057 31 30 195 3241 89 21
internal_value=0.00294751 1.54251 -0.0870282 1.31856 4.38281 0.255324 -0.179277 1.03718 2.09777 0.853498 0.515751 3.63119 -0.242824 2.37799 2.06882 0.15041 1.48325 2.71018 0.679536 0.756485 0.211974 -0.0683963 1.49729 0.361661 0.159189 1.86756 1.77918 1.42839 2.4791 0.97141 0.471051 0.0531321 0.331159 0.214989 0.410929 0.889519 0.549381 1.67352 0.642862 0.60417 -0.200421 0.248811 0.287041 0.10083 1.28733 -0.0132589 -0.0363567 0.0712754 -0.10477 2.69733 0.434674 0.877912 0.324516 0.500467 0.612131 -0.113481 -0.0788478 0.727809 0.048211 -0.221165 -0.0662775 -0.013963
internal_weight=21063 1163 19900 1078 85 4224 15676 792 286 561 1213 63 9965 195 101 3011 231 94 588 480 1844 5711 91 625 1278 78 78 81 72 166 358 1167 566 267 77 225 363 71 314 279 5769 504 449 774 153 2270 1650 1071 3441 45 323 129 271 117 45 3127 1088 61 620 3351 110 314
internal_count=21063 1163 19900 1078 85 4224 15676 792 286 561 1213 63 9965 195 101 3011 231 94 588 480 1844 5711 91 625 1278 78 78 81 72 166 358 1167 566 267 77 225 363 71 314 279 5769 504 449 774 153 2270 1650 1071 3441 45 323 129 271 117 45 3127 1088 61 620 3351 110 314
cat_boundaries=0 10 19
cat_threshold=537142272 25198624 256 0 1048832 270532608 33554432 1115152 132 2048 2097152 0 2048 0 135266304 0 33554432 1048577 536870912
is_linear=0
shrinkage=0.05


Tree=4
num_leaves=63
num_cat=2
split_feature=0 3 3 3 0 3 0 10 9 3 9 1 3 3 3 12 2 1 6 12 3 0 3 0 3 3 1 17 0 2 12 1 2 0 14 3 2 3 0 13 12 0 2 0 14 3 13 9 12 1 9 6 3 19 1 3 2 1 13 0 2 9
split_gain=1.05425e+06 252485 249126 70622.4 64553.2 56566.1 31080.8 28307.4 22362.5 12386.4 11055 10242.1 9903.99 9007.24 8890.69 7275.94 6979.98 6883.68 4382.39 4289.33 4255.93 4144.6 4246.3 2706.65 2247.07 2222.46 1970.56 1953.29 1784.6 1738.43 1721.75 1716.42 1694.36 1611.28 1601.06 1399.6 1391.04 1193.83 1112.44 1035.71 1034.64 1027.53 923.328 913.956 878.363 849.515 817.946 799.015 1300.13 773.86 745.221 736.705 727.51 703.006 700.984 699.615 675.455 670.496 632.416 632.374 600.183 684.896
threshold=27.00826700795141 56.324590878622885 9.2875907950845047 36.07305169845386 118.00000000000001 3.5721693545820776 15.000967554649963 24.650000000000002 26.050000000000004 23.865395119852916 3.9500000000000006 79.500000000000014 21.148532672265151 6.4305443474158386 1.1187777082826091 84.500000000000014 25.500000000000004 57.327562132858553 0.85999998450279247 1.5000000000000002 46.551501545015491 7.7657179114587764 16.870275760477991 19.497285110386187 13.486673852670188 31.323726708877025 33.064108294947268 0 48.168003027763099 5.8780814503901135 99.500000000000014 40.1137064541008 11.89653285699948 7.001547502929518 6.5000000000000009 16.870275760477991 9.9945578467938301 23.296384642134345 2.3156437345073271 5.5000000000000009 18.500000000000004 6.6617399354890923 7.9812276979905592 0.99680357479055581 6.5000000000000009 0.28507052263043181 1.5000000000000002 10.750000000000002 22.500000000000004 9.9383276420507283 7.6500000000000012 1.1599999666213991 12.721783928795032 1 15.407594351047763 4.5717092941251112 31.500000000000004 15.407594351047763 3.5000000000000004 23.000729669431802 16.309943063203139 -3.4499999999999997
decision_type=2 2 2 2 2 2 2 8 8 2 10 2 2 2 2 8 2 2 10 10 2 2 2 2 2 2 2 9 2 2 8 2 2 2 2 2 2 2 2 2 10 2 2 2 2 2 2 10 10 2 8 10 2 1 2 2 2 2 2 2 2 10
left_child=2 3 5 8 10 14 21 17 16 -10 -3 -12 15 33 45 24 18 28 -2 59 29 43 30 -17 -8 54 47 44 53 -9 32 42 -23 55 -32 -25 -31 49 -16 -34 -30 -29 -21 58 50 -1 -24 -18 -49 -20 -15 -48 -36 -5 -11 -7 -26 -37 -4 -14 61 -43
right_child=1 4 6 7 -6 13 12 20 9 25 11 -13 19 27 38 23 26 -19 37 31 -22 22 46 35 56 -27 -28 41 40 36 34 -33 39 -35 52 57 -38 -39 -40 -41 -42 60 -44 -45 -46 -47 51 48 -50 -51 -52 -53 -54 -55 -56 -57 -58 -59 -60 -61 -62 -63
leaf_value=-0.2982241582418535 0.15000034810281268 3.9319650309426444 -0.27019711777567867 1.4173334882372903 5.9444633342601634 -0.12452747203988244 0.18109345979383451 2.0362676952196206 0.99489623659186899 1.239007331643786 2.1795537205303419 3.6055157613754276 1.0592000349001451 0.2631789888105085 -0.20803539682813532 0.47099813988189337 1.0996993042528629 2.2010612122217816 0.7320909914560616 0.38967854678630831 3.0789713194876009 0.10717067184171686 0.71773202463432595 0.62696864512126416 0.37668234475737289 1.8330217624532765 1.365369376269254 -0.037247714591569808 1.3260689650475979 2.8499645440474803 0.16856792596767523 1.0400306832045316 0.2147945786095995 -0.028499867680615618 0.33904432370188825 1.0164115250110626 2.3367586781901699 0.82584953476723877 -0.16282851229658721 0.45226362516934221 1.8130034188429516 0.090398725279169492 0.69180657115088118 0.099803714030805762 0.16880929978536161 -0.25062815323527171 0.28328035224656589 0.50585015791913734 1.0267448625564577 0.42931283185002855 -0.0027992836737207004 0.50334419412261777 0.56743401830846618 1.0657161430879074 1.5217420642328736 -0.079951925676273697 0.6701378050304595 0.68512034912904107 0.044767057851833464 1.4427925155276347 0.16759349706650051 0.0026331137732215314
leaf_weight=3063 51 28 30 21 27 1761 197 23 180 28 34 20 22 31 3162 276 32 30 36 30 33 479 27 181 296 58 33 743 20 23 140 32 278 938 168 42 31 76 2389 55 24 313 161 425 330 1351 61 23 25 51 175 101 44 44 101 1760 21 24 34 21 83 767
leaf_count=3063 51 28 30 21 27 1761 197 23 180 28 34 20 22 31 3162 276 32 30 36 30 33 479 27 181 296 58 33 743 20 23 140 32 278 938 168 42 31 76 2389 55 24 313 161 425 330 1351 61 23 25 51 175 101 44 44 101 1760 21 24 34 21 83 767
internal_value=0.00279478 1.54559 -0.0783116 1.28224 3.82395 -0.154493 0.330234 2.00462 1.02306 1.29097 3.12573 2.70769 0.517121 -0.0444596 -0.230694 0.447305 0.722372 1.53037 0.554508 0.789298 2.6039 0.198033 0.243123 0.578602 0.313709 1.57595 1.04027 0.0327295 1.34577 2.4003 0.20743 0.701131 0.167392 -0.0867327 0.29979 0.69884 2.55535 0.681072 -0.18858 0.254016 1.59167 0.00863758 0.644352 0.0732776 0.116073 -0.283656 0.462945 0.906169 0.777149 0.5546 0.0372266 0.420481 0.386446 1.17932 1.46037 -0.102246 0.396123 0.895942 -0.102872 1.24654 0.0380264 0.0280689
internal_weight=21063 1052 20011 943 109 16866 3145 249 694 367 82 54 1303 6901 9965 1037 327 139 214 266 110 1842 1353 523 514 187 113 2442 109 77 1164 223 812 4459 352 247 54 163 5551 333 44 1906 191 489 536 4414 189 80 48 87 206 162 212 65 129 3521 317 66 64 43 1163 1080
internal_count=21063 1052 20011 943 109 16866 3145 249 694 367 82 54 1303 6901 9965 1037 327 139 214 266 110 1842 1353 523 514 187 113 2442 109 77 1164 223 812 4459 352 247 54 163 5551 333 44 1906 191 489 536 4414 189 80 48 87 206 162 212 65 129 3521 317 66 64 43 1163 1080
cat_boundaries=0 8 9
cat_threshold=760570518 259153 536870912 4096 0 0 0 536903680 2
is_linear=0
shrinkage=0.05


Tree=5
num_leaves=63
num_cat=3
split_feature=3 3 3 8 3 3 3 3 3 12 8 3 3 2 3 17 3 3 1 14 2 3 13 12 2 3 3 3 13 14 3 1 13 2 17 5 6 3 3 1 2 14 17 2 13 14 13 6 6 5 2 5 8 5 14 13 8 8 2 3 3 2
split_gain=926521 260073 198104 56820.6 50177.9 35265.3 35131.2 34464.1 19837.2 18111.8 13113.1 7164.76 7102.13 6768.65 5423.33 5110.16 4879.85 4850.7 3954.17 3450.81 2987.48 2804.81 2399.37 2310.84 2363.72 2310.53 1908.21 1779.08 1759.62 1684.29 1600.14 1370.31 1351.82 1522.77 1322.74 1286 1244.91 1244.45 1236.08 1157.61 1139.04 1103.72 1033.95 1006.37 1001.98 945.1 903.699 844.712 836.796 1051.91 785.208 751.62 730.749 718.274 685.302 676.768 673.553 672.614 707.031 642.285 638.894 637.445
threshold=20.578292199184123 56.324590878622885 7.7205642931622798 38.850000000000001 91.063168582822883 32.985272418142465 3.2862371741536363 13.059589774647934 37.500000000000007 4.5000000000000009 38.750000000000007 0.69056789221904569 38.698993168742618 64.500000000000014 26.911170525619063 0 28.894209828023659 5.1449048401599731 57.327562132858553 6.5000000000000009 22.500000000000004 15.732033321241502 1.0000000180025095e-35 84.500000000000014 12.988794850167718 46.551501545015491 11.86613782694244 10.000015751829283 1.0000000180025095e-35 6.5000000000000009 22.915174498803719 42.202483879994894 4.5000000000000009 22.500000000000004 1 17.271638617403877 0.99500000476837169 16.355389568440014 1.8562643195873187 21.990268662574042 23.500000000000004 6.5000000000000009 2 28.500000000000004 5.5000000000000009 6.5000000000000009 1.0000000180025095e-35 1.3650000095367434 0.8100000023841859 10.83534729672054 12.988794850167718 3.8483939626906163 34.250000000000007 6.5289182262172494 6.5000000000000009 4.5000000000000009 31.550000000000004 15.65 15.500000000000002 9.5733895617317462 9.144023963196874 5.8780814503901135
decision_type=2 2 2 8 2 2 2 2 2 10 8 2 2 2 2 9 2 2 2 2 2 2 2 8 2 2 2 2 2 2 2 2 2 2 9 2 10 2 2 2 2 2 9 2 2 2 2 10 10 2 2 2 8 2 2 2 10 10 2 2 2 2
left_child=2 3 6 8 9 14 11 15 16 -3 20 -1 -7 -11 30 26 28 42 32 -12 37 -21 -18 24 48 -14 41 -25 29 -2 -5 36 33 -10 -19 40 -24 44 -13 -38 -30 -4 -8 -26 50 -29 -39 -48 -17 59 -9 -23 61 -42 -54 -41 -55 -49 -59 -50 -43 -36
right_child=1 4 7 5 -6 12 17 10 18 13 19 38 25 -15 -16 23 22 34 -20 21 -22 51 31 27 43 -27 -28 45 35 -31 -32 -33 -34 -35 52 -37 39 46 -40 55 53 60 -44 -45 -46 -47 47 57 49 -51 -52 -53 54 56 -56 -57 -58 58 -60 -61 -62 -63
leaf_value=-0.27801792615740956 1.1403938654661179 3.8778242812437171 0.11764076469735529 0.94950887033094977 5.3925468095143643 1.8450588177550924 -0.0008391249700534074 0.1290170609744547 0.73058538258075723 1.6656787085533145 0.34856087487190962 -0.21725005232306449 2.3353752280390543 2.879271690933793 1.5493314774349483 -0.058634406243572412 1.3883277096531608 0.046591102246406203 1.8722669039453781 0.57440582739266877 0.51739966130603254 0.58293009946743657 0.45970821839112502 0.10335964184806085 0.14114710561171306 2.9190107345581056 0.48640704017768543 0.1672608738274951 0.4875017867109479 0.580370923003246 1.235295342206955 1.213589432835579 1.507811006184282 1.2260836501052417 -0.086010223445325593 0.24937827967935139 1.1780992519287836 0.58968149307701323 -0.16899989744259722 0.67876215679723717 0.45888866732517886 0.19271285555683651 -0.11796414633652497 0.42475362349958989 0.41053745424161198 0.37440165493438265 0.21347051046997589 0.56649438413525266 0.0031518947958437933 0.39698275512173065 0.27653936699602255 0.88205985214029037 -0.055997472315583934 0.68621673104116476 0.053688702349192242 1.0139224770665169 1.021976317167282 0.25019789515848617 0.50000297846489172 0.08242814808953712 0.33595942115583988 -0.025019341328612034
leaf_weight=3756 25 34 159 96 30 66 210 212 20 20 80 2226 43 27 99 230 22 537 28 192 158 24 26 314 391 28 82 95 169 29 100 20 29 69 890 36 21 36 3288 61 24 130 3329 34 61 131 107 42 557 21 157 168 244 59 342 20 20 83 43 472 194 826
leaf_count=3756 25 34 159 96 30 66 210 212 20 20 80 2226 43 27 99 230 22 537 28 192 158 24 26 314 391 28 82 95 169 29 100 20 29 69 890 36 21 36 3288 61 24 130 3329 34 61 131 107 42 557 21 157 168 244 59 342 20 20 83 43 472 194 826
internal_value=0.0013617 1.33814 -0.0809855 1.10738 3.64573 1.55554 -0.162615 0.225111 0.821825 2.99876 0.431428 -0.224758 2.21845 2.36285 1.24768 0.125037 0.680143 -0.0722952 1.33809 0.6473 0.32001 0.709537 0.90112 0.0898155 0.0616672 2.56554 0.258816 0.180354 0.576369 0.839641 1.09532 0.828697 1.21134 1.11474 -0.023611 0.530211 0.768558 0.277922 -0.188478 0.847285 0.56738 0.225536 -0.11135 0.163836 0.222816 0.287329 0.354113 0.323275 0.0277441 0.0466651 0.191784 0.844669 -0.040016 0.698443 0.00801733 0.761518 0.771219 0.39321 0.335449 0.0395157 0.278484 -0.0566521
internal_weight=21042 1221 19821 1110 111 432 15648 4173 678 81 1363 9270 137 47 295 2810 532 6378 146 464 899 384 170 2245 1705 71 565 540 362 54 196 148 118 89 2839 308 128 741 5514 102 272 483 3539 425 430 226 311 275 1280 1050 369 192 2302 103 586 81 79 168 126 1029 324 1716
internal_count=21042 1221 19821 1110 111 432 15648 4173 678 81 1363 9270 137 47 295 2810 532 6378 146 464 899 384 170 2245 1705 71 565 540 362 54 196 148 118 89 2839 308 128 741 5514 102 272 483 3539 425 430 226 311 275 1280 1050 369 192 2302 103 586 81 79 168 126 1029 324 1716
cat_boundaries=0 9 18 27
cat_threshold=184758928 259653 268435464 33554432 2147483648 1280 0 0 2097152 3714129954 238717 2097152 0 1073741824 16384 16 604012544 8 536870912 29360128 256 0 1064960 2097152 167772160 1146882 262272
is_linear=0
shrinkage=0.05


Tree=6
num_leaves=63
num_cat=3
split_feature=0 3 3 0 3 3 0 8 8 0 3 3 3 3 3 1 4 8 6 8 8 1 2 14 3 4 1 17 4 1 8 12 3 6 0 12 3 4 0 8 17 5 10 4 3 3 3 5 0 2 19 6 5 1 0 6 0 4 5 12 2 5
split_gain=837078 227309 205739 50987.5 44954.8 44723.3 28591.8 23269.1 16583.4 15975.9 8605.73 7683.4 6873.24 6332.78 5891.44 5030.64 4947.64 4926.52 4858.38 3258.25 2565.77 2530.97 2371.21 2365.48 2210.26 2090.5 2372.08 1980.93 1874.52 1737.34 1720.04 1704.51 1848.78 1681.94 1554.13 1707.63 1521.41 1433.97 1317.42 1272.71 1209.66 1172.32 1133.78 1129.76 1034.94 1031.19 1016.34 1003.22 989.98 969.705 953.688 906.216 885.586 849.51 778.856 766.38 736.077 814.244 970.495 708.884 666.887 662.149
threshold=27.00826700795141 56.324590878622885 9.2875907950845047 118.00000000000001 3.8586504001436537 32.985272418142465 17.396205182397477 39.500000000000007 38.250000000000007 60.695310738341526 0.69056789221904569 15.082813492389613 46.551501545015491 23.865395119852916 6.1447867204972511 63.022427376699248 17.607472534609609 inf 0.97500002384185802 30.950000000000003 37.550000000000004 28.100405527974662 6.9882060491234999 6.5000000000000009 19.000776696462967 33.392857142857146 5.9939266455096218 0 3.2143933078691069 38.057265212659637 9.9500000000000011 11.500000000000002 22.435700919477924 0.59999999403953563 49.056077306673735 18.500000000000004 19.962900642849156 13.217037985648307 6.0002932803681057 31.450000000000003 1 3.8813300650599696 1.0000000180025095e-35 20.0848342299394 26.911170525619063 12.860353683772514 38.698993168742618 16.234147774970101 1.9995826824576326 27.500000000000004 2 0.97500002384185802 9.6572202647696326 16.787649603308484 9.6452976586846351 1.4900000095367434 1.673592027022307 6.3933395372671704 6.239276223086387 22.500000000000004 7.9812276979905592 4.964156664707823
decision_type=2 2 2 2 2 2 2 8 8 2 2 2 2 2 2 2 2 8 10 8 8 2 2 2 2 2 2 9 2 2 10 10 2 10 2 10 2 2 2 10 9 2 10 2 2 2 2 2 2 2 1 10 2 2 2 10 2 2 2 10 2 2
left_child=2 5 4 9 10 8 16 15 18 -3 -1 20 21 -10 40 34 17 22 37 29 51 46 47 -19 39 26 -20 54 48 43 -11 32 -26 -18 42 -36 -35 -2 61 53 -6 60 -7 -13 -15 -24 -9 -4 -12 -28 -38 -8 -45 -21 -16 -54 -42 -58 -59 -39 -25 -29
right_child=1 3 6 -5 14 7 11 12 13 30 28 19 -14 44 27 -17 33 23 25 24 -22 -23 45 41 31 -27 49 38 -30 -31 -32 -33 -34 36 35 -37 50 59 -40 -41 56 -43 -44 52 -46 -47 -48 -49 -50 -51 -52 -53 55 -55 -56 -57 57 58 -60 -61 -62 -63
leaf_value=-0.2641170265984199 0.039665766017777583 1.9280478751217878 0.048951304343341169 5.4292389834368677 -0.0082023391924347742 0.91352098472972421 0.019405370586095972 1.6575715444430157 0.91926250804150311 3.6978615036717168 -0.21082736810451774 0.39679025914057259 2.8263249785811815 1.1979677490393321 0.057240524818258948 1.9907435750961306 0.76421444647546322 0.15193723571290704 1.0954764454786119 0.75982499696907757 0.46762095801532272 2.2914995081284468 0.12791523524947684 0.38709207020593545 0.86858673503865358 1.1758570442597072 0.52204978129403157 -0.015134422172147633 -0.12892026681380772 0.86836629314630331 3.1385415043149676 0.66475672765475957 1.3783466100692749 0.25277040883490487 1.0963950355138097 1.659121805887956 0.22579180054042652 0.28445845258235936 0.029349901247044154 0.32538775912037604 -0.15570234049650925 0.55772932437184741 1.2554209970329939 0.48295277354405508 1.4632175451830813 0.23782273247788424 2.0748186206817629 -0.27027301639318468 -0.16528864852154601 0.79337757267850517 0.59382888279358548 0.27507340372963385 0.92347164215712718 0.44284208669112285 0.1780017061452675 0.55329832655412181 -0.091192248424188299 -0.030009778766296319 0.31381061618978329 0.67851337946596602 0.21705324964517955 -0.10575458815057973
leaf_weight=3756 35 27 461 27 552 67 47 54 171 27 2252 161 27 60 335 20 28 171 29 113 203 34 579 175 46 24 110 523 1986 33 28 41 29 146 28 26 23 25 1352 27 373 73 38 76 95 338 20 26 2539 47 75 132 29 26 222 27 2285 306 22 21 86 328
leaf_count=3756 35 27 461 27 552 67 47 54 171 27 2252 161 27 60 335 20 28 171 29 113 203 34 579 175 46 24 110 523 1986 33 28 41 29 146 28 26 23 25 1352 27 373 73 38 76 95 338 20 26 2539 47 75 132 29 26 222 27 2285 306 22 21 86 328
internal_value=0.0012919 1.38432 -0.0706181 3.54466 -0.140222 1.13139 0.298826 1.61717 0.884165 2.92413 -0.203409 0.521671 2.11279 1.12907 -0.0345459 1.24337 0.197672 0.169245 0.609801 0.632081 0.345939 1.93441 0.121073 0.303175 0.756531 0.736684 0.680016 0.0202066 -0.169763 0.524428 3.41312 0.923983 1.06569 0.39718 1.14936 1.36734 0.355061 0.280846 -0.00132026 0.639516 -0.0772584 0.380605 1.03726 0.485691 1.36054 0.168426 1.77034 0.0319085 -0.186694 0.603275 0.507453 0.207943 0.594122 0.700533 0.103513 0.744995 -0.0896964 -0.0806175 -0.00694865 0.464353 0.331064 -0.0500621
internal_weight=21042 1040 20002 109 16831 931 3171 314 617 82 10533 990 135 326 6298 179 2181 1909 291 608 382 108 1404 505 282 210 186 2760 6777 326 55 116 75 272 159 54 244 81 2203 166 3538 334 105 293 155 917 74 487 4791 157 98 179 132 139 557 56 2986 2613 328 46 261 851
internal_count=21042 1040 20002 109 16831 931 3171 314 617 82 10533 990 135 326 6298 179 2181 1909 291 608 382 108 1404 505 282 210 186 2760 6777 326 55 116 75 272 159 54 244 81 2203 166 3538 334 105 293 155 917 74 487 4791 157 98 179 132 139 557 56 2986 2613 328 46 261 851
cat_boundaries=0 10 20 21
cat_threshold=219247152 259091 536870912 8388608 4194304 16384 0 536903680 2097152 1032 3781451841 8552544 8192 0 1048640 35651584 33554432 68192256 1310752 2048 4
is_linear=0
shrinkage=0.05


Tree=7
num_leaves=63
num_cat=6
split_feature=3 3 3 8 3 3 3 3 3 8 8 3 16 3 17 16 3 3 5 16 14 3 3 1 3 5 3 3 2 4 4 8 3 13 4 5 4 2 17 9 5 6 2 6 17 17 1 2 3 16 14 5 16 8 4 16 14 4 5 19 4 17
split_gain=754763 211562 161741 46374.2 42342 28772.4 28624.4 28316.5 16287.3 14693.3 9669.42 6179.23 6050.87 5810.43 5243.08 4609.99 4396.46 3959.27 3819.09 2832.88 2831.52 2478.97 2337.52 2242.44 2172.99 2144.39 1961.68 1945.88 1825.26 1818.23 1796 1586.71 1352.04 1278.18 1267.09 1205.12 1177.36 1171.91 1162.81 1161.74 1403.36 1129.74 1100.28 1090.78 994.722 916.36 898.331 990.8 841.528 841.319 813.251 773.407 728.995 693.781 689.501 679.267 670.469 639.304 621.258 601.466 594.141 586.08
threshold=20.578292199184123 56.324590878622885 7.7205642931622798 40.150000000000006 91.063168582822883 32.985272418142465 3.2862371741536363 13.486673852670188 37.500000000000007 1.0500000000000003 38.750000000000007 46.551501545015491 1.0000000180025095e-35 0.69056789221904569 0 1.0000000180025095e-35 26.911170525619063 5.1449048401599731 21.007368314198263 1.0000000180025095e-35 6.5000000000000009 28.894209828023659 28.894209828023659 28.100405527974662 10.714406994484172 13.730125074967523 11.719733935747914 15.732033321241502 24.500000000000004 16.370446147646337 17.186271526952819 37.250000000000007 22.915174498803719 1.5000000000000002 22.980046674614474 17.271638617403877 2.1090263807989662 28.500000000000004 1 15.350000000000003 8.8437663075745601 0.8100000023841859 7.9812276979905592 1.3650000095367434 2 3 21.990268662574042 29.500000000000004 49.126037145114928 1.0000000180025095e-35 6.5000000000000009 8.6945521000493429 1.0000000180025095e-35 -4.4499999999999993 2.4290590367622351 1.0000000180025095e-35 6.5000000000000009 17.186271526952819 3.8483939626906163 4 9.643816339424907 5
decision_type=2 2 2 8 2 2 2 2 2 10 8 2 2 2 9 2 2 2 2 2 2 2 2 2 2 2 2 2 2 2 2 8 2 2 2 2 2 2 9 10 2 10 2 10 9 9 2 2 2 2 2 2 2 10 2 2 2 2 2 1 2 9
left_child=2 3 6 8 9 16 13 14 15 -3 19 23 28 -1 26 21 32 45 -11 29 -12 35 39 33 37 -14 56 -22 -10 -9 -21 42 -5 -7 -23 57 -15 44 -19 40 -17 -31 -26 -43 -16 -8 -36 -48 59 -44 -33 -32 53 -46 -40 -28 -4 -2 -29 -30 -55 -38
right_child=1 4 7 5 -6 11 17 10 12 18 20 -13 25 36 24 22 -18 38 -20 30 27 34 -24 -25 31 -27 55 58 48 41 51 50 -34 -35 46 -37 61 -39 54 -41 -42 43 49 -45 52 -47 47 -49 -50 -51 -52 -53 -54 60 -56 -57 -58 -59 -60 -61 -62 -63
leaf_value=-0.25091118669936768 0.28796986105876998 3.5069044546647508 0.11737363127561716 0.85611271358405561 4.8936706161499028 1.8965841544641031 0.0030464345267550517 0.16862137395469748 0.67666622678438826 2.5641404218673709 0.31923783196038324 2.6850087236475062 1.3757357911630113 -0.19546082984737401 0.12252001359801129 0.57859543584611106 1.3989612074813458 0.045445623670265167 1.6713761101598328 0.36740942591675457 0.52648501950989723 0.35775027559562167 1.1885887817790113 2.176924540014828 0.027112017980506345 2.0910882431268694 0.37951459704366114 0.52502524486432478 0.82816600004549734 0.6456292710000916 0.55932010205053706 0.13848045383722096 1.1201202307428633 1.4837234462562361 1.0765416784584523 0.15491525806260831 -0.02403299178900745 0.4068562941058822 0.16913201313000173 0.54344143629074093 1.081366001367569 0.13438053635763936 0.11862593676032854 0.37883789068404239 0.11012285660981434 -0.10683823070372439 0.57138845018214646 0.9129170210446631 1.3899599956429523 0.28645404177821349 0.36750456515402918 0.9385757720470429 0.086309112840041377 -0.044081343979035327 -0.040275501680263615 0.67197051965273347 0.25178723549125376 0.51504714796197704 0.79697986257572973 1.1723614344994226 0.051801442925048916 -0.15319085894721932
leaf_weight=3756 37 33 130 96 30 37 210 338 30 25 76 27 22 2520 337 23 99 524 23 170 159 22 39 34 217 20 84 24 22 28 41 59 98 38 20 33 109 23 40 45 35 64 242 159 128 3329 54 35 23 108 113 20 362 543 2275 26 324 191 168 30 230 2885
leaf_count=3756 37 33 130 96 30 37 210 338 30 25 76 27 22 2520 337 23 99 524 23 170 159 22 39 34 217 20 84 24 22 28 41 59 98 38 20 33 109 23 40 45 35 64 242 159 128 3329 54 35 23 108 113 20 362 543 2275 26 324 191 168 30 230 2885
internal_value=0.00122711 1.20775 -0.0730965 0.999625 3.28904 1.40681 -0.146855 0.203485 0.743117 2.69473 0.402997 2.00784 1.20917 -0.202948 0.118457 0.614822 1.12784 -0.0653271 2.13636 0.302525 0.59594 0.526402 0.858911 1.8401 0.0844925 1.71638 0.254683 0.655853 1.00628 0.244325 0.450923 0.155922 0.989477 1.6874 0.703881 0.437322 -0.170277 0.0524892 -0.0213433 0.734081 0.881991 0.346268 0.115569 0.30868 0.0473951 -0.100611 0.773742 0.705697 1.13813 0.170413 0.288944 0.683666 0.0261727 0.00230176 -0.0364996 0.448641 0.213299 0.478197 0.762986 1.02674 -0.0155522 -0.149081
internal_weight=21042 1221 19821 1110 111 429 15648 4173 681 81 1247 136 147 9270 2926 534 293 6378 48 820 427 392 142 109 2362 42 564 351 105 589 231 739 194 75 131 261 5514 1623 2839 103 58 251 567 223 1600 3539 109 89 75 350 172 61 1263 901 2315 110 454 228 192 52 773 2994
internal_count=21042 1221 19821 1110 111 429 15648 4173 681 81 1247 136 147 9270 2926 534 293 6378 48 820 427 392 142 109 2362 42 564 351 105 589 231 739 194 75 131 261 5514 1623 2839 103 58 251 567 223 1600 3539 109 89 75 350 172 61 1263 901 2315 110 454 228 192 52 773 2994
cat_boundaries=0 9 18 28 37 38 46
cat_threshold=184758928 128711 268435464 33554432 2147483648 1280 4194304 0 2097152 3579912226 238717 2097152 134221824 1073741824 16384 16 603981824 8 874004484 133128 16777216 0 2097152 16 32 262144 0 1024 536870912 29360128 256 0 1064960 2097152 167772160 1146882 262272 1 0 0 0 0 134217728 16777218 570425344 521
is_linear=0
shrinkage=0.05


Tree=8
num_leaves=63
num_cat=0
split_feature=0 3 3 0 3 3 0 8 0 8 3 3 3 3 3 16 6 0 1 3 16 8 12 1 3 3 14 3 0 2 8 8 0 3 5 3 0 5 14 1 0 2 14 3 0 13 8 3 8 3 12 5 0 8 5 0 13 14 14 2 15 5
split_gain=684295 185176 167523 43283.6 37731.2 36305.1 22887.4 18818 13438.1 13268 7122.26 6139.58 5690.25 5159.27 5137.65 4691.02 4136.48 4009.5 2907.53 2693.84 2569.89 2374.05 2241.88 2581.65 1928.93 1897.85 1616.88 1549.63 1510.74 1435.82 1427.41 1365.72 1308.13 1274.11 1424.04 1112.52 1063.76 1112.12 1048.41 991.953 977.388 957.553 948.398 1496.68 912.06 906.193 905.662 832.605 809.85 958.66 806.269 731.819 683.135 670.393 666.553 656.766 642.358 921.284 1102.46 635.076 589.483 768.387
threshold=27.00826700795141 56.324590878622885 9.4315996053209687 118.00000000000001 3.8586504001436537 32.985272418142465 17.396205182397477 39.500000000000007 60.695310738341526 38.250000000000007 1.715388692720589 13.486673852670188 38.698993168742618 23.865395119852916 6.5720999851519926 1.0000000180025095e-35 0.97500002384185802 8.7602744926094349 52.500000000000007 17.989601049311275 1.0000000180025095e-35 39.500000000000007 82.500000000000014 38.057265212659637 46.551501545015491 16.870275760477991 6.5000000000000009 0.42847082949329574 8.6373024650166172 11.89653285699948 9.9500000000000011 36.250000000000007 32.006035394985624 23.865395119852916 15.181441009390346 49.126037145114928 41.058978191357092 13.189998112095044 4.5000000000000009 36.035874132634376 5.0912365528755261 15.500000000000002 6.5000000000000009 22.435700919477924 12.999311209324887 4.5000000000000009 3.0500000000000003 26.911170525619063 24.850000000000005 23.865395119852916 35.500000000000007 4.2053250537260567 2.6699684412449485 16.350000000000005 5.0120890006501151 60.695310738341526 3.5000000000000004 8.5000000000000018 5.5000000000000009 5.8780814503901135 2012.5000000000002 8.6945521000493429
decision_type=2 2 2 2 2 2 2 8 2 8 2 2 2 2 2 2 10 2 2 2 2 8 8 2 2 2 2 2 2 2 10 8 2 2 2 2 2 2 2 2 2 2 2 2 2 2 10 2 8 2 10 2 2 10 2 2 2 2 2 2 2 2
left_child=2 5 4 8 10 9 17 15 -3 16 27 31 -9 -11 40 35 36 33 -17 21 56 29 23 41 55 -24 -23 -1 54 -19 -10 -8 -22 34 -4 38 37 -2 -7 -40 -6 -13 -27 -44 52 -31 -30 -15 49 53 -34 -28 -12 -21 -16 -14 57 58 -18 -48 61 -43
right_child=1 3 6 -5 14 7 11 12 30 13 44 22 24 47 28 18 20 19 -20 48 32 26 25 -25 -26 42 51 -29 46 45 -32 -33 50 -35 -36 -37 -38 -39 39 -41 -42 60 43 -45 -46 -47 59 -49 -50 -51 -52 -53 -54 -55 -56 -57 -58 -59 -60 -61 -62 -63
leaf_value=-0.24261987001798993 0.20053997037725316 1.7162104553646511 0.078968899562010503 4.9378682101214375 -0.086220750311187921 0.70229238595651555 0.143902339632549 1.5698506687237668 3.3376232579902365 0.83027536252960132 -0.15865211311664501 0.34552474139247114 2.2210956764221192 1.0827567982673647 0.015841487741694273 1.2123649472540077 0.39447134791350946 0.093684620838175761 1.9544355240735141 0.61523352885246285 0.67260941836958466 0.15916679733088368 0.53340197218312591 0.86812227187972324 2.5507582911738642 0.53053602098390973 0.32601277920342508 -0.1910414168360276 0.12780332183840032 0.16807227103774636 2.828099506241935 0.37763785965545404 1.2689983407656351 0.46391915753483776 -0.23781779092295388 1.2382597993921352 -0.027596662069360418 0.65838816932269506 1.2653778292238713 0.82359051638179359 -0.036580142709549332 0.49632237909869714 0.75844311060323744 1.2109082284181014 0.17690772802933405 0.32946307514653062 -0.029582347013518091 1.3206696010263343 0.31557148509666705 0.82137113034725184 0.84476869503657026 0.53322264082156701 -0.12007024686142605 0.2719746801889304 -0.062203551140036201 1.8293262523153555 0.72873815057739133 0.21280163929869353 0.79728916143548911 0.072422471142387521 0.44193217157050468 0.810899772644043
leaf_weight=3325 36 27 534 27 2234 46 126 65 27 171 2223 167 20 60 890 33 41 480 22 25 38 146 159 38 27 29 236 2591 435 255 28 124 24 20 38 27 24 21 24 27 1783 55 89 23 23 132 242 95 119 20 21 52 2371 33 395 23 31 26 29 413 147 30
leaf_count=3325 36 27 534 27 2234 46 126 65 27 171 2223 167 20 60 890 33 41 480 22 25 38 146 159 38 27 29 236 2591 435 255 28 124 24 20 38 27 24 21 24 27 1783 55 89 23 23 132 242 95 119 20 21 52 2371 33 395 23 31 26 29 413 147 30
internal_value=0.00116307 1.25162 -0.0638541 3.20149 -0.125552 1.02333 0.275514 1.46101 2.62976 0.800588 -0.183708 0.473949 1.90672 1.01965 -0.0297192 1.12486 0.555179 0.181803 1.50919 0.225339 0.672256 0.199248 0.546579 0.474325 2.21953 0.651829 0.294712 -0.22003 0.0285787 0.15146 3.07823 0.259835 0.888618 0.0716397 0.0579236 0.954391 0.251645 0.369221 0.875376 1.03149 -0.0641871 0.436821 0.785375 0.85136 -0.137167 0.22312 0.0718771 1.22857 0.397647 0.522864 1.07102 0.363426 -0.13874 0.419931 -0.00814901 2.01154 0.530854 0.466954 0.561353 0.0347352 0.502538 0.60735
internal_weight=21042 1040 20002 109 16925 931 3077 314 82 617 10533 987 135 326 6392 179 291 2090 55 1498 210 1301 737 437 70 300 434 5916 2375 867 55 250 83 592 572 124 81 57 97 51 4017 399 141 112 4617 387 1090 155 197 78 45 288 4594 58 1285 43 127 96 70 655 232 85
internal_count=21042 1040 20002 109 16925 931 3077 314 82 617 10533 987 135 326 6392 179 291 2090 55 1498 210 1301 737 437 70 300 434 5916 2375 867 55 250 83 592 572 124 81 57 97 51 4017 399 141 112 4617 387 1090 155 197 78 45 288 4594 58 1285 43 127 96 70 655 232 85
is_linear=0
shrinkage=0.05


Tree=9
num_leaves=63
num_cat=0
split_feature=0 3 3 0 3 3 0 9 0 9 3 3 3 3 3 16 0 6 9 3 3 1 16 6 1 4 12 3 10 14 14 4 2 0 9 4 0 0 1 6 3 0 2 9 14 4 9 5 0 5 3 3 6 10 4 4 3 1 16 6 9 4
split_gain=617576 167121 151223 39063.5 33065.2 32765.4 21436.3 16983.3 12127.9 12015.9 5707.31 5509.44 5326.7 5135.46 4830.99 4233.65 3796.92 3784.86 2810.64 2909.13 2649.57 2624.05 2194.73 2184.57 2081.59 1971.95 1775 1740.86 1463.82 1450.05 1379.42 1342.68 1314.66 1289.78 1288.24 1285.28 1204.31 1086.44 1290.25 1055.86 1039.2 1222.12 1032.57 979.383 951.578 936.058 931.886 917.669 864.859 946.372 922.033 857.362 820.162 732.162 727.233 684.312 681.135 658.371 627.672 625.789 623.645 766.285
threshold=27.00826700795141 56.324590878622885 9.2875907950845047 118.00000000000001 3.5721693545820776 32.985272418142465 17.396205182397477 26.750000000000004 60.695310738341526 27.250000000000004 15.082813492389613 0.69056789221904569 6.1447867204972511 38.698993168742618 23.865395119852916 1.0000000180025095e-35 8.7602744926094349 0.9350000023841859 24.650000000000002 22.435700919477924 13.594713663297485 52.500000000000007 1.0000000180025095e-35 0.43999999761581426 38.057265212659637 7.5618003180114934 96.500000000000014 46.551501545015491 34.45000000000001 6.5000000000000009 7.5000000000000009 20.0848342299394 22.500000000000004 2.6699684412449485 -1.0499999999999998 7.9897649147378873 30.814078202217779 41.058978191357092 7.9868668980063839 0.78999999165534984 36.07305169845386 49.056077306673735 22.500000000000004 9.2500000000000018 6.5000000000000009 31.410714285714288 26.050000000000004 16.234147774970101 5.0912365528755261 6.9023803262464343 5.1423661286248796 26.911170525619063 0.97500002384185802 0.15000000000000005 19.545207242076561 4.5009009964482285 17.989601049311275 9.9383276420507283 1.0000000180025095e-35 0.6850000023841859 24.450000000000003 5.6429597367790763
decision_type=2 2 2 2 2 2 2 8 2 8 2 2 2 2 2 2 2 10 8 2 2 2 2 10 2 2 8 2 8 2 2 2 2 2 10 2 2 2 2 10 2 2 2 8 2 2 8 2 2 2 2 2 10 10 2 2 2 2 2 10 8 2
left_child=2 5 4 8 11 9 16 15 -3 17 26 -1 48 -9 -11 40 31 37 23 44 25 -17 45 -12 -25 30 52 54 35 -30 -18 47 46 59 -10 39 -24 38 -2 -14 -7 53 -38 -34 -20 57 56 -4 55 60 -51 -16 -8 -42 -15 -6 -22 -19 -41 -13 61 -50
right_child=1 3 6 -5 12 7 10 13 34 14 18 33 28 27 51 21 20 22 19 -21 32 -23 36 24 -26 -27 -28 -29 29 -31 -32 -33 43 -35 -36 -37 42 -39 -40 58 41 -43 -44 -45 -46 -47 -48 -49 49 50 -52 -53 -54 -55 -56 -57 -58 -59 -60 -61 -62 -63
leaf_value=-0.22653055741968423 0.59036447095870981 1.6303999342852169 0.060882187228048515 4.6909748359962746 -0.11616417753655149 0.61862905716896055 0.0038580652247083951 1.4913581477678741 3.170742064272916 0.78876158737996871 0.97312482625246055 -0.097622620324638476 -0.14115730526320863 2.1214297135670979 1.0270812276561381 1.1517466907699905 0.32971958225238185 0.65363781038543278 0.353193416626289 1.1546176191033988 0.16979830269094395 1.856713732806119 0.59102678903762029 0.3996551676206952 0.81569953773057824 0.12041748665486461 0.39931560184917236 2.4232203783812345 -0.0091652548780761251 0.12987285283485925 -0.043890519440174108 0.35256105779032959 0.68498108182102446 -0.11970612722932142 2.6866945232663837 0.049750957185649237 0.72645620129381616 -0.082597830078818588 0.071452028725458236 -0.041211884233041188 0.72175207944904896 1.2118049025121662 1.1664645981788635 0.35523742644214318 0.66463283890823155 0.81064064389183421 0.39366376371777589 -0.21447056890465321 -0.10086835060853126 0.4348521477729082 -0.013062532660033968 1.2707536097495788 0.24684408730057006 1.0793051817200401 1.7100715214555917 -0.06417549491841805 0.31161289486422472 0.3781477762516155 0.040704321428253455 -0.17289678627211619 -0.0080506619594521416 -0.0032291163888880517
leaf_weight=3756 25 27 556 27 1276 25 47 65 27 171 20 299 198 21 59 33 210 29 29 29 230 22 34 338 33 744 202 27 309 477 28 38 32 2265 28 687 24 22 23 749 41 36 30 76 159 21 101 32 725 20 27 93 133 22 22 1256 134 86 340 3606 563 278
leaf_count=3756 25 27 556 27 1276 25 47 65 27 171 20 299 198 21 59 33 210 29 29 29 230 22 34 338 33 744 202 27 309 477 28 38 32 2265 28 687 24 22 23 749 41 36 30 76 159 21 101 32 725 20 27 93 133 22 22 1256 134 86 340 3606 563 278
internal_value=0.00110491 1.18904 -0.0606614 3.04142 -0.120335 0.972164 0.256075 1.38796 2.49827 0.760559 0.449031 -0.178787 -0.0363109 1.81138 0.971072 1.06862 0.168489 0.529282 0.544189 0.688494 0.210347 1.43373 0.629569 0.464102 0.436662 0.160492 0.297574 2.10855 0.0175068 0.0752128 0.285765 0.0645124 0.295789 -0.149723 2.92432 -0.00547035 0.824134 0.208362 0.341719 -0.0349475 0.906671 0.979409 0.970905 0.452939 0.616592 0.503674 0.25929 0.045897 -0.072146 -0.0435309 0.177539 1.17617 0.183398 0.846612 1.91097 -0.0903752 0.222005 0.447619 -0.0156366 -0.167133 -0.0501659 -0.0738058
internal_weight=21042 1040 20002 109 16831 931 3171 314 82 617 990 9926 6905 135 323 179 2181 294 608 217 1555 55 224 391 371 982 382 70 2760 786 238 626 573 6170 55 1974 88 70 48 1287 124 99 54 108 188 136 465 588 4145 1613 47 152 180 63 43 2532 364 115 1089 3905 1566 1003
internal_count=21042 1040 20002 109 16831 931 3171 314 82 617 990 9926 6905 135 323 179 2181 294 608 217 1555 55 224 391 371 982 382 70 2760 786 238 626 573 6170 55 1974 88 70 48 1287 124 99 54 108 188 136 465 588 4145 1613 47 152 180 63 43 2532 364 115 1089 3905 1566 1003
is_linear=0
shrinkage=0.05


Tree=10
num_leaves=63
num_cat=6
split_feature=0 0 3 3 3 0 0 9 10 3 3 5 3 6 5 9 9 3 17 2 4 9 9 1 1 1 17 12 3 2 3 0 4 16 14 4 17 3 3 2 17 4 2 0 3 3 0 4 17 2 4 4 17 0 16 1 14 5 4 10 5 9
split_gain=583483 136244 134666 59714.6 26388.5 20805.9 14783.6 11604.6 8796.8 7507.23 6782.23 6573.08 5169.14 4309.27 3547.69 3227.01 2708.29 2844.06 2417.54 2294.83 2235.23 3748.28 2037.27 2082.73 1908.52 2382.86 1604.21 1566.38 1481.63 1444.74 1390.25 1364.66 1350.68 1233.91 1231.06 1224.33 1157.39 1103.67 1061.21 1038.85 1017.35 1453.92 1005.06 963.737 883.301 851.933 805.81 787.774 754.381 752.13 745.711 725.618 706.013 668.727 661.692 645.477 644.81 625.045 623.187 825.291 599.483 585.274
threshold=27.00826700795141 101.43765283624947 8.5730405899593958 36.07305169845386 3.1429304297140086 14.000963674837029 49.056077306673735 27.250000000000004 1.0000000180025095e-35 16.144138600037959 23.865395119852916 18.557867669826525 5.5721285809437555 0.85999998450279247 0.37817930283089446 -12.35 10.250000000000002 41.7288730853396 0 40.500000000000007 49.589285714285715 25.050000000000004 24.650000000000002 46.130969713362042 34.00144535576456 5.9939266455096218 1 94.500000000000014 22.915174498803719 6.716019041039698 19.962900642849156 1.9995826824576326 13.893190417626277 1.0000000180025095e-35 6.5000000000000009 26.316512352302258 2 29.506336831294842 12.292655201738027 18.480862503646666 3 4.8647337465118907 8.9777363454182435 67.966435620161008 28.894209828023659 11.86613782694244 2.1898293051679407 7.5618003180114934 4 17.500000000000004 7.1793348133873467 13.470777695778059 5 7.9868668980063839 1.0000000180025095e-35 27.00826700795141 6.5000000000000009 8.4247367008955969 7.6265675385624778 6.4500000000000011 4.8823281809504957 13.65
decision_type=2 2 2 2 2 2 2 8 10 2 2 2 2 10 2 10 10 2 9 2 2 8 8 2 2 2 9 8 2 2 2 2 2 2 2 2 9 2 2 2 9 2 2 2 2 2 2 2 9 2 2 2 9 2 2 2 2 2 2 8 2 10
left_child=2 3 4 7 14 18 20 13 11 15 -9 16 36 32 -1 38 17 29 33 -13 21 54 23 35 25 -15 -14 30 34 -8 31 57 -2 51 -24 -11 47 -12 -7 -35 41 -16 -33 -19 -27 50 -42 -6 -38 -17 -29 -4 -28 -53 -5 -46 -40 -20 59 -54 -58 -55
right_child=1 -3 5 6 12 9 8 10 -10 22 37 19 26 24 40 49 -18 43 27 -21 -22 -23 28 -25 -26 44 52 45 -30 -31 -32 42 -34 39 -36 -37 48 -39 56 -41 46 -43 -44 -45 55 -47 -48 -49 -50 -51 -52 53 58 61 -56 -57 60 -59 -60 -61 -62 -63
leaf_value=-0.2160234447226631 -0.00077659310521306223 4.0423961012791372 0.12619440391659739 0.76512781943915031 -0.01950548588602509 0.27473163817559132 1.307612898520061 0.73283182258762603 1.1569625939314183 0.36068530742763977 1.0659478228371424 2.192164470669296 0.077018052948112356 0.95292368774351321 -0.0812502781464223 0.13572942978478403 1.3340729317665101 2.3312486906205456 0.034994469173252586 2.8988031029701236 1.6047688643137616 1.5778861666719119 0.29987607177163506 0.87231857347488406 0.95826521572612577 0.45738961499418834 -0.10229662121167263 0.25091128906323795 1.009899566932158 1.8941155751546224 0.27638555366106127 0.014723729293971958 0.44664749238760248 0.3099668073238897 0.64105454191453481 0.57160847065753717 -0.15765251246409054 1.307828194193724 0.20734784597980568 0.72521681934595117 -0.17088184420596664 0.36716300766915083 0.10672116495635108 1.9265653695378984 0.87376943322328415 0.33110606972542078 -0.1290929560970486 0.30202688552439216 -0.084402105219401502 0.29451271278010877 0.089193364920363102 0.055636963390168694 -0.049051123663263786 0.26811223195188422 1.1026532340049744 0.50106621413003827 0.39424844478437704 -0.25160170240470997 0.035802099777995443 0.02827854866843443 0.56790144064381154 0.57106711006164557
leaf_weight=3627 37 39 165 53 401 209 21 166 39 344 111 27 555 38 188 361 25 31 30 20 21 24 33 25 42 143 209 105 22 21 72 553 31 61 133 86 419 82 29 20 3359 20 641 28 26 72 1757 20 3591 94 222 21 1080 44 20 21 134 52 591 507 79 25
leaf_count=3627 37 39 165 53 401 209 21 166 39 344 111 27 555 38 188 361 25 31 30 20 21 24 33 25 42 143 209 105 22 21 72 553 31 61 133 86 419 82 29 20 3359 20 641 28 26 72 1757 20 3591 94 222 21 1080 44 20 21 134 52 591 507 79 25
internal_value=0.00195903 1.1417 -0.058923 1.03154 -0.120189 0.216438 1.58564 0.769204 1.83531 0.355212 0.967165 1.98824 -0.0501441 0.558943 -0.177886 0.262481 1.80001 1.91534 0.11324 2.49286 1.13707 1.03582 0.485872 0.428664 0.648538 0.591483 0.00123497 0.0878788 0.62433 1.60086 0.0626237 0.0505619 0.203196 0.235481 0.57323 0.40287 -0.0842577 1.16872 0.357263 0.412498 -0.151905 -0.0363844 0.0641126 2.1392 0.519195 0.175404 -0.156225 -0.00413263 -0.0924291 0.168533 0.141121 0.188487 -0.0166383 0.302689 0.857601 0.707242 0.42854 -0.146749 -0.00798855 -0.0243466 0.458655 0.377878
internal_weight=21022 1066 19956 1027 16324 3632 330 697 212 1549 359 173 7373 338 8951 906 126 101 2083 47 118 97 643 455 270 228 2942 1747 188 42 1348 1276 68 336 166 430 4431 193 451 81 5324 208 1194 59 190 399 5116 421 4010 455 327 255 2387 90 73 47 242 82 2178 1587 213 69
internal_count=21022 1066 19956 1027 16324 3632 330 697 212 1549 359 173 7373 338 8951 906 126 101 2083 47 118 97 643 455 270 228 2942 1747 188 42 1348 1276 68 336 166 430 4431 193 451 81 5324 208 1194 59 190 399 5116 421 4010 455 327 255 2387 90 73 47 242 82 2178 1587 213 69
cat_boundaries=0 8 18 28 37 47 56
cat_threshold=301989890 41 1342177289 2048 2684354560 1049856 4456580 262144 4144181428 13333 2097152 134221824 0 0 16 537165824 8 1025 805307393 25198592 2147483904 0 3163200 270532608 167772160 103424 264452 2048 8 0 0 0 2281701378 0 41943040 6665 136314880 0 536870912 67108928 786560 134250624 8 11014656 50487625 2 8 0 0 4194689 2147483648 75497536 4194304 603979776 196866 33554560
is_linear=0
shrinkage=0.05


Tree=11
num_leaves=63
num_cat=4
split_feature=0 0 3 3 3 0 0 15 10 3 3 5 3 6 3 3 15 10 17 1 1 4 10 2 4 2 3 2 10 4 6 17 3 2 3 3 17 3 16 14 13 3 13 5 15 4 3 4 17 10 4 2 3 0 5 4 3 4 3 16 10 5
split_gain=526599 122960 121542 53939.2 23918.6 18777.3 12015.4 10282.3 9117.19 7264.88 6775.28 5192.12 4259.88 3656.19 3509.8 3129.89 4597.66 2813.34 2227.27 2044.7 2178.49 1893.14 2005.79 1850.41 1820.32 2049.96 1537.68 1460.19 1332.41 1430.9 1642.07 1268.73 1232.85 1097.98 1071.27 1031.23 940.692 912.431 902.103 857.998 825.213 818.499 787.696 766.831 724.688 773.357 705.913 687.241 679.014 652.964 835.521 652.752 762.274 638.195 626.579 621.63 619.227 609.627 598.694 571.936 567.216 563.391
threshold=27.00826700795141 101.43765283624947 8.5730405899593958 37.500000000000007 3.5721693545820776 14.000963674837029 49.056077306673735 2015.5000000000002 1.0000000180025095e-35 24.289825080895245 16.144138600037959 24.495883126296032 1.715388692720589 0.8100000023841859 5.7181279843587314 62.868984495988876 2015.5000000000002 41.100000000000009 0 5.9939266455096218 34.00144535576456 49.589285714285715 12.550000000000002 12.988794850167718 12.792666248765507 35.500000000000007 21.856031148185757 6.1933903721476566 50.45000000000001 15.358439757742834 0.8100000023841859 1 32.985272418142465 9.4768097183522126 12.292655201738027 0.28507052263043181 2 26.911170525619063 1.0000000180025095e-35 6.5000000000000009 4.5000000000000009 21.856031148185757 5.5000000000000009 7.8602887926831384 2014.5000000000002 20.0848342299394 21.148532672265151 7.5618003180114934 3 6.4500000000000011 7.5618003180114934 29.500000000000004 19.962900642849156 1.9995826824576326 8.1152408620579823 13.470777695778059 46.551501545015491 5.6429597367790763 12.721783928795032 1.0000000180025095e-35 1.4500000000000002 9.8576333242341381
decision_type=2 2 2 2 2 2 2 2 10 2 2 2 2 10 2 2 2 8 9 2 2 2 8 2 2 2 2 2 8 2 10 9 2 2 2 2 9 2 2 2 2 2 2 2 2 2 2 2 9 8 2 2 2 2 2 2 2 2 2 2 8 2
left_child=2 3 4 7 12 18 21 13 11 46 17 15 35 23 36 16 -8 42 38 -15 32 22 -5 -2 41 26 -26 -18 29 40 -31 -16 -21 -29 -19 -1 47 -11 55 -30 53 43 -7 -12 -28 -46 -9 -6 -38 50 59 52 61 -20 -27 -4 -35 -14 -41 -33 -40 -32
right_child=1 -3 5 6 14 10 8 9 -10 37 24 -13 57 19 31 -17 27 34 28 20 -22 -23 -24 -25 25 54 44 33 39 30 51 49 -34 56 -36 -37 48 -39 60 58 -42 -43 -44 -45 45 -47 -48 -49 -50 -51 -52 -53 -54 -55 -56 -57 -58 -59 -60 -61 -62 -63
leaf_value=-0.20979095978031825 0.02345650907267224 3.8402762596423816 0.12980163372235329 0.84932880364969143 -0.01494663782577494 0.13632891592052249 1.1513943844371373 0.60729460270561841 1.0722739856494101 0.94944563784769598 0.61705548089455098 2.6872298288345338 -0.12690881741873153 0.97142062786261774 0.080245179983228859 2.3742556463588369 1.5484317299464476 0.25499364270545616 -0.17556975876743144 0.44865456622650446 0.90187973990672976 1.5245304374467761 1.4263274958729744 0.57687114532176487 0.28983285033639444 0.45609948903322223 0.42223218834211296 2.2815689722696941 0.079254189668636787 0.51959202572703356 0.14855591602299525 -0.074799877787831814 0.81327204397983022 1.6731505459005183 0.41083785472437739 -0.16797918594947847 -0.13953775030752902 1.1853322806506374 0.48259773929417132 0.20041697968633321 0.10155319384344197 0.9098599402792753 0.32290279053179832 0.28139148235321043 0.86550874195315619 0.47238009615704935 0.80814704625187694 0.28514527544379237 -0.070587115482231053 0.029211960620979107 0.024396054095716452 -0.12171313626070818 0.35794227622650765 0.020410888822226567 0.7974620698428736 0.29333618552320534 2.0441949906556505 -0.024822591402028738 0.45584261703949713 0.0053147117022706684 0.1946728487069217 -0.11777874523152908
leaf_weight=3084 44 39 164 61 414 396 27 107 38 56 114 20 3860 37 442 22 23 204 44 164 41 21 20 23 235 20 142 24 163 30 115 812 27 22 240 2826 436 153 50 195 352 20 66 20 22 29 74 20 2765 696 510 24 37 743 41 90 23 152 26 307 26 24
leaf_count=3084 44 39 164 61 414 396 27 107 38 56 114 20 3860 37 442 22 23 204 44 164 41 21 20 23 235 20 142 24 163 30 115 812 27 22 240 2826 436 153 50 195 352 20 66 20 22 29 74 20 2765 696 510 24 37 743 41 90 23 152 26 307 26 24
internal_value=0.00185472 1.08461 -0.0559835 0.979967 -0.114188 0.205616 1.54273 0.746647 1.76889 0.921303 0.337452 1.93331 -0.162804 0.543921 -0.0388409 1.82637 1.72508 0.249357 0.107578 0.626235 0.571184 1.10148 0.991798 0.213435 0.461579 0.414368 0.375719 1.89345 0.0834976 0.0608873 0.174642 0.00359178 0.500197 2.00846 0.339234 -0.189798 -0.0711412 1.12213 0.226115 0.16628 0.0379165 0.611489 0.162982 0.566956 0.480296 0.641965 0.689411 -0.00109235 -0.080384 -0.0112772 -0.0286457 0.1229 0.156256 0.0094539 0.68554 0.187747 1.8628 -0.123041 0.230467 -0.0528203 0.384097 0.10257
internal_weight=21022 1066 19956 1027 16324 3632 301 726 199 390 1549 161 9922 336 6402 141 119 906 2083 269 232 102 81 67 643 489 428 92 1753 1369 230 2767 191 69 444 5910 3635 209 330 384 1139 154 462 134 193 51 181 434 3201 2325 1629 200 176 787 61 254 45 4012 221 1119 76 139
internal_count=21022 1066 19956 1027 16324 3632 301 726 199 390 1549 161 9922 336 6402 141 119 906 2083 269 232 102 81 67 643 489 428 92 1753 1369 230 2767 191 69 444 5910 3635 209 330 384 1139 154 462 134 193 51 181 434 3201 2325 1629 200 176 787 61 254 45 4012 221 1119 76 139
cat_boundaries=0 8 18 28 37
cat_threshold=301989890 41 1342177289 2048 2147483648 68158720 4456580 262144 4114685968 79381 0 134221824 0 0 144 537165824 0 1025 805593344 8552480 256 2149580800 0 287375360 33554440 1147904 264384 2048 0 603979776 67258432 524416 134516872 0 11177984 153116737 33619970
is_linear=0
shrinkage=0.05


Tree=12
num_leaves=63
num_cat=6
split_feature=0 0 3 3 3 0 0 9 1 8 3 3 3 3 6 3 2 17 0 9 2 16 9 1 8 2 2 9 2 3 17 0 2 19 16 8 13 3 3 8 2 3 17 14 3 13 14 14 0 15 3 6 0 17 9 13 19 0 3 15 1 16
split_gain=475259 110971 109695 48725.6 21582.8 16946.5 12073.7 9521.7 6384.05 9294.84 6157.42 5523.14 4039.74 3844.54 3516.57 3171.47 2458.95 2043.49 1917.81 1682.73 2331.76 1647.96 1569 1566.69 1773.51 1318.45 1615.43 1278.67 1262.56 1191.75 1172.46 1149.95 1137.92 1008.03 1000 992.28 957.476 934.061 930.686 926.659 873.337 866.627 864.701 850.14 782.876 744.284 740.084 732.447 726.569 675.272 647.233 631.789 620.344 611.904 609.45 607.597 582.373 550.956 545.455 538.416 530.634 527.499
threshold=27.00826700795141 101.43765283624947 8.5730405899593958 36.07305169845386 3.5721693545820776 14.000963674837029 49.056077306673735 27.250000000000004 79.500000000000014 9.9500000000000011 14.000803114127981 23.865395119852916 52.214285714285722 1.715388692720589 0.85999998450279247 5.7181279843587314 39.500000000000007 0 21.006936584586459 25.050000000000004 50.500000000000007 1.0000000180025095e-35 -12.35 39.221962832957054 35.050000000000004 6.1933903721476566 9.4768097183522126 -24.049999999999997 40.500000000000007 19.962900642849156 1 1.9995826824576326 12.988794850167718 2 1.0000000180025095e-35 23.350000000000005 3.5000000000000004 29.506336831294842 0.28507052263043181 19.350000000000005 8.9777363454182435 16.870275760477991 3 8.5000000000000018 21.856031148185757 1.5000000000000002 6.5000000000000009 5.5000000000000009 31.037924345375103 2014.5000000000002 22.084324240012965 2.9500000476837163 1.0472039720776729 4 21.450000000000003 4.5000000000000009 5 35.876596660750785 13.486673852670188 2015.5000000000002 15.407594351047763 1.0000000180025095e-35
decision_type=2 2 2 2 2 2 2 8 2 10 2 2 2 2 10 2 2 9 2 8 2 2 10 2 8 2 2 10 2 2 9 2 2 1 2 10 2 2 2 10 2 2 9 2 2 2 2 2 2 2 2 10 2 9 10 2 1 2 2 2 2 2
left_child=2 3 4 7 13 17 19 14 9 12 22 57 25 38 32 42 -11 34 39 20 -5 36 -7 24 51 -8 -27 46 48 31 -17 -29 -2 -18 -4 -36 43 -13 -1 41 -33 -12 -6 47 54 -43 -19 -16 -23 -46 -26 -20 -32 -44 -41 -42 -38 -9 -48 -24 -47 -54
right_child=1 -3 5 6 15 10 8 11 -10 16 18 37 -14 -15 21 30 33 27 23 -21 -22 28 59 -25 50 26 -28 29 -30 -31 52 40 -34 -35 35 -37 56 -39 -40 44 55 45 53 -45 49 60 58 -49 -50 -51 -52 -53 61 -55 -56 -57 -58 -59 -60 -61 -62 -63
leaf_value=-0.19930140119041143 0.040719245115052101 3.6482624958723022 0.17126415514954388 0.77606692349209505 -0.002616307729572811 0.28410596682449274 1.383493646465499 0.61732991998320197 2.443658076161924 0.65533728046076645 0.31263097884228169 0.96065073624119024 2.3234960079193114 -0.11688908677873622 0.35700490556094644 0.077212287359323742 1.0568277213884438 0.079237412340400451 0.39741145884978346 1.372750179635154 1.3584579239720884 0.46116618663072589 0.14605762994000338 0.86267069025108456 0.54308976097353578 2.1219115443851639 1.5824880736214775 -0.13638464033421946 1.1000237452983856 0.25382247312615314 -0.10373780285091903 0.01145003137573319 0.47792844989083028 1.5072759875544797 0.2012393207333627 0.54920742277055978 0.51061602519906091 1.1831701770152261 -0.15958022726844714 0.16798178614300144 0.061697596353288198 0.70129710589261629 -0.13443641370964296 0.19052267670631409 0.31555168677673295 0.57101635723500643 0.19349016552790999 0.63778917084137599 0.77126875435020414 0.65565699964761737 0.82859048253816114 0.13813286931426436 -0.019346687831254115 -0.067632238402897601 0.40984199736267329 0.16439707068668874 0.870449440858581 0.84824658456491309 0.46135832780883429 -0.11534247313226974 0.3232969687821774 0.035357722159373862
leaf_weight=3084 46 39 266 68 460 321 29 134 23 21 118 111 31 4012 48 441 23 166 181 27 23 30 318 26 145 23 35 82 20 72 167 557 22 27 42 40 23 82 2826 140 417 34 416 31 54 37 200 45 51 20 23 27 1542 2759 32 220 22 32 21 21 52 617
leaf_count=3084 46 39 266 68 460 321 29 134 23 21 118 111 31 4012 48 441 23 166 181 27 23 30 318 26 145 23 35 82 20 72 167 557 22 27 42 40 23 82 2826 140 417 34 416 31 54 37 200 45 51 20 23 27 1542 2759 32 220 22 32 21 21 52 617
internal_value=0.0017589 1.03038 -0.0531876 0.930969 -0.108483 0.195335 1.43149 0.693993 1.65712 1.56141 0.320579 0.87331 1.8334 -0.154664 0.503535 -0.036909 1.10937 0.102199 0.406474 1.02611 0.923265 0.584471 0.204882 0.487304 0.461347 1.65876 1.7964 0.0784553 0.744259 0.0559085 0.00342669 0.0447409 0.182169 1.30007 0.212225 0.37098 0.488976 1.05519 -0.180308 0.339751 0.05718 0.409434 -0.067613 0.417282 0.271485 0.502302 0.159018 0.492868 0.656416 0.407472 0.582176 0.363755 -0.0108481 -0.0767798 0.212979 0.0971668 0.686535 0.661844 0.218944 0.129865 0.426281 -0.00371324
internal_weight=21022 1066 19956 1027 16324 3632 330 697 212 189 1549 359 118 9922 338 6402 71 2083 889 118 91 270 660 402 376 87 58 1735 101 1348 2767 1276 68 50 348 82 169 193 5910 487 1194 241 3635 124 246 123 387 93 81 74 168 208 2326 3175 172 637 45 166 221 339 89 2159
internal_count=21022 1066 19956 1027 16324 3632 330 697 212 189 1549 359 118 9922 338 6402 71 2083 889 118 91 270 660 402 376 87 58 1735 101 1348 2767 1276 68 50 348 82 169 193 5910 487 1194 241 3635 124 246 123 387 93 81 74 168 208 2326 3175 172 637 45 166 221 339 89 2159
cat_boundaries=0 8 18 19 29 38 39
cat_threshold=301989890 41 1342177289 2048 2684354560 68158720 4456580 262144 4110491664 13845 2097152 134221824 0 16384 144 537165824 256 1025 2 805593344 8552480 256 2149580800 64 287375360 33554440 538018816 264384 2048 0 603979776 67242096 524416 134254728 0 11177984 153116737 65538 1
is_linear=0
shrinkage=0.05


Tree=13
num_leaves=63
num_cat=5
split_feature=3 3 3 3 12 3 8 3 12 12 1 3 3 3 3 17 13 3 1 5 16 13 3 16 12 5 6 4 17 4 17 4 4 16 8 17 1 4 6 6 5 10 1 17 6 6 4 15 12 16 4 5 3 9 10 6 13 5 6 9 1 3
split_gain=423467 99681.8 92321.2 29330.4 25916.3 16860.8 15543.9 14782.7 13423.6 7648.27 4387.87 3622.93 2847.96 2609.61 2533.82 2040.56 2009 1984.95 1910.19 1894.95 1839.57 1752.96 1741.14 1516.04 1341.91 1284.18 1237.78 1176.36 1134.42 1108.65 1090.99 970.137 947.484 890.026 868.042 834.557 799.669 782.252 764.063 1021.83 762.279 757.52 754.868 735.068 686.74 683.53 668.726 657.474 617.473 617.122 615.574 608.391 590.428 564.47 525.826 783.862 523.6 522.593 491.608 478.766 461.362 459.558
threshold=21.148532672265151 62.868984495988876 7.8573401398336484 37.500000000000007 2.5000000000000004 2.7162254170420925 38.850000000000001 12.292655201738027 80.500000000000014 82.500000000000014 88.500000000000014 5.1449048401599731 26.911170525619063 46.551501545015491 28.894209828023659 0 1.5000000000000002 0.42847082949329574 35.16210252172008 17.271638617403877 1.0000000180025095e-35 5.5000000000000009 16.870275760477991 1.0000000180025095e-35 38.500000000000007 13.189998112095044 0.8100000023841859 49.589285714285715 1 16.370446147646337 2 7.5618003180114934 14.787430192653174 1.0000000180025095e-35 26.950000000000003 3 0.98438954986227489 8.7507072512227655 0.78999999165534984 1.3650000095367434 4.3551003822806162 0.8500000000000002 37.070497140298471 4 0.9350000023841859 0.9650000035762788 17.186271526952819 2013.5000000000002 42.500000000000007 1.0000000180025095e-35 14.196582884957897 2.7951920379768236 11.288444167420451 12.350000000000003 3.2500000000000004 0.48999999463558203 1.0000000180025095e-35 11.847937849912915 0.48999999463558203 7.4500000000000011 12.944626234188087 6.4305443474158386
decision_type=2 2 2 2 10 2 8 2 8 8 2 2 2 2 2 9 2 2 2 2 2 2 2 2 10 2 10 2 9 2 9 2 2 2 8 9 2 2 10 10 2 8 2 9 10 10 2 2 10 2 2 2 2 10 10 10 2 2 10 10 2 2
left_child=2 3 5 6 -3 17 14 15 21 20 -6 28 -8 16 19 54 -10 -1 -15 26 29 27 37 24 42 -18 -2 48 31 -9 -13 -7 45 46 49 51 -36 -11 -31 -40 -24 -32 47 -30 -21 -22 -28 -16 53 58 -14 -19 -38 -5 55 -4 -52 -58 -17 -34 -54 -43
right_child=1 4 7 8 10 11 12 9 13 22 -12 30 50 18 23 34 25 35 -20 44 32 -23 40 -25 -26 -27 33 -29 43 38 41 -33 59 -35 36 -37 52 -39 39 -41 -42 61 -44 -45 -46 -47 -48 -49 -50 -51 56 -53 60 -55 -56 -57 57 -59 -60 -61 -62 -63
leaf_value=-0.18814438083268761 0.78752154611671976 3.6586495616219263 0.44883857369422914 0.54419165091081101 1.4918919131640465 -0.020730232814259182 0.77623989780743918 0.1055970972866665 1.7466552864421498 0.42838571714560714 2.4033757779909219 0.061152174424900264 0.93518281107147549 2.3032072687149046 0.72404465467945955 -0.14977808892726899 1.5092781662940979 -0.049906975648752072 1.6532483495198766 -0.12467151641845704 -0.023435329914093018 1.3567758855365573 0.33640912280728424 0.91383671172355363 0.29553346068391367 0.94945684529486174 0.1473199998959899 1.1035178397152874 -0.14739759950664866 0.51548045927828012 -0.046512305560594283 0.33564139455556874 0.58162692583033015 0.55605629690182512 0.35971868542524488 -0.14060251730011222 0.063200846080310721 0.28649487255661976 0.061903257099911568 0.28122160694491166 0.57334880601551574 -0.021702770529168986 0.92763615756295614 -0.081426026597306994 0.2720373193422953 0.26152302042574144 0.39707271991805598 0.41707154878161168 0.98359420979022971 0.086619163458334647 1.3683452129364015 0.25765989363193514 0.23244818284803506 0.83048209564553377 -0.030202821156743803 0.16242024286517232 1.0142083213953623 1.3004095164212315 0.005485406976196463 0.34845857848639339 0.023143464823563897 0.045694400841143852
leaf_weight=3278 24 33 25 33 31 423 153 485 33 180 23 434 48 20 37 56 20 82 26 20 25 21 42 38 36 21 32 37 513 22 1503 20 28 78 26 4709 840 211 80 158 177 549 20 3754 24 133 165 33 25 235 22 20 98 36 33 537 58 22 569 103 36 469
leaf_count=3278 24 33 25 33 31 423 153 485 33 180 23 434 48 20 37 56 20 82 26 20 25 21 42 38 36 21 32 37 513 22 1503 20 28 78 26 4709 840 211 80 158 177 549 20 3754 24 133 165 33 25 235 22 20 98 36 33 537 58 22 569 103 36 469
internal_value=0.00166792 0.926469 -0.052787 0.795546 2.55473 -0.107786 0.644692 0.158593 1.24478 0.274626 1.88012 -0.0546475 0.92802 1.6401 0.475366 0.0808911 1.45627 -0.158138 1.93584 0.398075 0.191793 0.932684 0.415036 0.637017 0.553531 1.22254 0.443158 0.8647 -0.0818753 0.150256 -0.0112489 -0.00453877 0.29887 0.413104 0.0540875 -0.137693 0.0860545 0.351815 0.233561 0.207501 0.527908 -0.023861 0.65673 -0.0896835 0.0917151 0.216435 0.356504 0.579329 0.770697 0.0175455 1.08284 0.00947166 0.0787493 0.693561 0.161064 0.175161 1.15232 1.09291 -0.0084262 0.398296 0.176217 0.0093476
internal_weight=21022 1169 19853 1082 87 15754 810 4099 272 1644 54 7665 303 120 507 2455 74 8089 46 343 1034 152 610 164 126 41 299 131 4710 745 2955 443 289 275 1860 4811 1000 391 260 238 219 2521 90 4267 44 158 197 70 94 860 150 102 974 69 595 562 102 80 625 131 134 1018
internal_count=21022 1169 19853 1082 87 15754 810 4099 272 1644 54 7665 303 120 507 2455 74 8089 46 343 1034 152 610 164 126 41 299 131 4710 745 2955 443 289 275 1860 4811 1000 391 260 238 219 2521 90 4267 44 158 197 70 94 860 150 102 974 69 595 562 102 80 625 131 134 1018
cat_boundaries=0 9 18 27 36 46
cat_threshold=2332241552 185985 285212680 33556480 0 1024 132 262144 67108864 813696001 8781824 2147484032 134217728 1067010 2097152 167772416 1152016 262916 1365442562 13413 2228224 134221826 1073741824 0 16 536903684 2147483720 0 0 0 0 134217728 0 41943040 2057 134217728 0 536870912 67125248 344192 134225920 2147486216 86510192 50340425 17301504 1024
is_linear=0
shrinkage=0.05


Tree=14
num_leaves=63
num_cat=5
split_feature=0 0 3 3 3 0 0 9 1 12 3 3 17 4 0 17 4 3 0 0 1 12 17 4 9 2 1 2 13 4 5 2 2 3 12 4 3 0 3 12 19 3 3 17 4 16 3 9 1 5 13 0 4 4 12 5 0 4 16 16 13 12
split_gain=389217 93427 89222.1 44249.2 21259.2 11577.7 10334.9 7682.4 5739.85 9175.32 4906.96 4716.1 4026.11 2823.51 2674.2 2665.46 2474.75 2362.37 2191.71 1802.44 1549.39 1817.06 1518.85 1511.55 1434.07 1398.56 1365.62 3104.98 1480.3 1290.21 1197.18 1063.29 1385.33 1025.62 932.555 892.025 858.98 831.68 829.979 1048.03 804.858 1147.83 795.147 786.303 773.548 756.709 706.802 705.213 689.008 682.297 659.444 628.549 592.937 573.067 566.282 621.092 554.898 542.46 509.248 503.666 499.458 554.246
threshold=27.00826700795141 118.00000000000001 9.4315996053209687 37.500000000000007 4.2880140329299339 20.000204083311875 49.056077306673735 27.250000000000004 79.500000000000014 77.500000000000014 24.289825080895245 1.8562643195873187 0 25.089883955377662 13.001058597089161 1 21.504426973695164 24.289825080895245 7.001547502929518 1.9995826824576326 40.1137064541008 82.500000000000014 2 49.589285714285715 23.050000000000004 39.500000000000007 9.9383276420507283 10.984104870321351 2.5000000000000004 6.8216698001193121 15.181441009390346 6.1933903721476566 9.4768097183522126 17.148194965872221 52.500000000000007 4.607911241621224 18.758370134571404 8.2593400813539048 16.144138600037959 82.500000000000014 3 29.506336831294842 11.719733935747914 4 0.14339354895178863 1.0000000180025095e-35 29.506336831294842 24.350000000000005 36.035874132634376 16.234147774970101 1.5000000000000002 1.63141433793798 10.646018947274809 16.036591246187452 14.500000000000002 4.1517806935459172 3.3695174060773172 8.8321959203231213 1.0000000180025095e-35 1.0000000180025095e-35 4.5000000000000009 5.5000000000000009
decision_type=2 2 2 2 2 2 2 8 2 8 2 2 9 2 2 9 2 2 2 2 2 8 9 2 8 2 2 2 2 2 2 2 2 2 10 2 2 2 2 8 1 2 2 9 2 2 2 8 2 2 2 2 2 2 8 2 2 2 2 2 2 10
left_child=2 3 4 7 11 12 23 16 9 25 -9 44 17 31 19 -6 26 37 22 -14 21 36 29 24 48 -8 27 28 -2 -17 -27 -11 -33 -23 54 56 -7 50 39 58 -18 -42 57 -20 -1 52 -12 -40 -5 60 -4 -24 -44 -54 55 -31 -13 -39 -16 -53 61 -21
right_child=1 -3 5 6 15 20 8 10 -10 13 46 35 14 -15 38 18 40 -19 43 49 -22 33 51 -25 -26 30 -28 -29 -30 34 -32 32 -34 -35 -36 -37 -38 42 47 -41 41 -43 45 -45 -46 -47 -48 -49 -50 -51 -52 59 53 -55 -56 -57 -58 -59 -60 -61 -62 -63
leaf_value=-0.1834136483189423 0.091431449037609691 3.8361554604989516 0.33666441919138801 0.9459707674655049 -0.12897734955263462 0.21501352588822639 0.72360082988937702 0.60673869519574308 2.2650151433944705 1.2742588463283722 0.87714708754244985 -0.11988073664663752 -0.19369120887450633 2.1156243509716459 0.056633241075812094 -0.0060728068593031261 0.50281789124012 0.62378797872198954 0.087794127437716751 0.13192892053777033 0.76223615184426308 0.39983776688294592 -0.10869712664075058 1.3187232775347573 1.2101185250282289 0.95911394698279251 0.22643665338061678 1.0070828085595911 0.61397031331839769 0.054831658154726029 1.4351494865417482 1.9855937480926515 1.4659748891304281 0.60420651093311617 0.47385175839405175 -0.04771682826688816 0.38228604835155727 0.27194778473331377 0.23239934214209912 0.23470052260912616 0.53449300812291245 0.90199542142624078 0.42189652279441092 0.01826148685927095 -0.14705575673262455 0.46543452470550239 1.0651743462499308 0.47546158990773724 0.59602280381398332 -0.19202999052676289 0.045428049409544313 -0.050060852446076734 0.088583284825086595 0.29273427596823737 0.04740367714187195 0.42544857982832651 -0.084357644313629451 0.062545211272219486 0.19395737630524199 0.0033925148365224994 0.14040397527404017 0.037080600553943924
leaf_weight=2565 33 27 26 22 441 153 24 175 25 21 102 2896 62 36 217 293 85 45 549 222 28 159 335 21 20 28 103 22 23 20 25 23 29 100 22 752 154 65 139 262 42 43 53 1559 3405 71 98 38 39 22 77 1581 50 110 87 26 1772 59 98 611 329 503
leaf_count=2565 33 27 26 22 441 153 24 175 25 21 102 2896 62 36 217 293 85 45 549 222 28 159 335 21 20 28 103 22 23 20 25 23 29 100 22 752 154 65 139 262 42 43 53 1559 3405 71 98 38 39 22 77 1581 50 110 87 26 1772 59 98 611 329 503
internal_value=0.00157719 0.932443 -0.0481474 0.856986 -0.0929833 0.201147 1.35393 0.642737 1.55369 1.45809 0.800094 -0.132021 0.153098 1.75325 0.116224 -0.0124907 0.474619 0.271599 -0.00212643 0.0684527 0.399169 0.381208 -0.0297678 0.940704 0.842699 1.04026 0.345952 0.503774 0.306046 0.0544276 1.18366 1.57454 1.69581 0.478745 0.172304 -0.0982545 0.298922 0.245899 0.189867 0.160812 0.611612 0.720406 0.277949 0.0368734 -0.162677 0.324071 0.96928 0.284582 0.722234 0.0835576 0.118944 -0.0447327 0.27695 0.228937 0.122424 0.264311 -0.106396 0.172313 0.0993563 -0.0351612 0.0893099 0.0661238
internal_weight=21022 1066 19956 1039 16914 3042 313 726 211 186 375 11390 2448 109 1892 5524 351 556 5083 1138 594 566 2975 102 81 77 181 78 56 448 53 73 52 259 155 5420 307 511 754 577 170 85 408 2108 5970 284 200 177 61 1076 103 2527 213 160 133 46 4668 124 315 2192 1054 725
internal_count=21022 1066 19956 1039 16914 3042 313 726 211 186 375 11390 2448 109 1892 5524 351 556 5083 1138 594 566 2975 102 81 77 181 78 56 448 53 73 52 259 155 5420 307 511 754 577 170 85 408 2108 5970 284 200 177 61 1076 103 2527 213 160 133 46 4668 124 315 2192 1054 725
cat_boundaries=0 7 17 27 28 38
cat_threshold=436928528 617 1343229953 2048 2685403136 202442049 262148 0 603980032 2147500224 268959744 67764226 33554432 1677721600 4801290 570425344 10 2359714 8520737 2105344 142610496 1048576 16384 33554448 539265024 2359560 512 1 3842203664 258079 536870912 0 2097152 0 128 0 2147483648 1025
is_linear=0
shrinkage=0.05


Tree=15
num_leaves=63
num_cat=3
split_feature=0 0 3 3 3 0 12 2 9 1 3 3 3 4 3 12 13 9 2 0 1 3 4 4 9 14 3 3 2 1 17 5 17 5 4 3 1 13 2 4 1 4 0 17 0 3 9 14 12 4 0 1 3 12 1 9 4 1 16 2 2 4
split_gain=335052 85016 80664.4 43430 14504.9 13500.2 12125.7 10673.9 7260.89 6079.5 5697.32 4643.63 3284.32 2504.16 2216.92 3869.98 2099.58 1865.97 1739.23 1792.55 1726.98 2956.79 1717.6 1640.92 1616.46 1348.64 993.123 954.274 911.601 978.693 895.161 886.127 793.78 808.405 769.715 765.241 748.437 761.182 678.831 668.829 645.482 633.144 611.382 600.379 592.593 592.373 584.098 778.734 570.243 809.328 556.694 531.956 529.34 1003.97 610.84 610.571 526.167 715.632 522.083 503.196 479.793 476.741
threshold=27.00826700795141 118.00000000000001 8.4290424638194725 37.500000000000007 2.8050093965142513 13.001058597089161 3.5000000000000004 60.500000000000007 27.250000000000004 43.720926370339406 13.486673852670188 26.911170525619063 5.7181279843587314 22.980046674614474 22.084324240012965 5.5000000000000009 3.5000000000000004 -24.049999999999997 42.500000000000007 7.2830905626425073 36.035874132634376 46.551501545015491 1.5443866242427717 36.267857142857146 -3.0499999999999994 6.5000000000000009 49.126037145114928 11.86613782694244 12.988794850167718 12.944626234188087 0 15.181441009390346 1 6.4677653264406905 5.4756503474852432 21.856031148185757 13.942921839468456 1.5000000000000002 22.500000000000004 12.048382380765853 28.100405527974662 13.893190417626277 13.998545093666253 2 6.0002932803681057 17.148194965872221 -12.35 6.5000000000000009 17.500000000000004 7.2506939425153734 1.0472039720776729 26.004006998139857 29.506336831294842 27.500000000000004 29.02241821499636 11.250000000000002 3.8956557770567142 0.98438954986227489 1.0000000180025095e-35 42.500000000000007 11.89653285699948 4.1787377518496358
decision_type=2 2 2 2 2 2 10 2 8 2 2 2 2 2 2 10 2 10 2 2 2 2 2 2 10 2 2 2 2 2 9 2 9 2 2 2 2 2 2 2 2 2 2 9 2 2 10 2 10 2 2 2 2 10 2 10 2 2 2 2 2 2
left_child=2 3 4 8 22 18 9 23 13 20 24 35 30 28 17 -16 -9 25 19 31 21 40 50 -8 60 -12 59 48 58 -30 -6 51 33 -14 46 -10 -17 -38 -19 45 -5 -13 -36 56 -34 -27 47 -32 49 -21 -1 -4 55 54 -54 -15 -24 -58 -2 -25 -7 -48
right_child=1 -3 5 6 12 10 7 16 11 -11 14 41 32 52 15 36 -18 38 -20 27 -22 -23 43 26 -26 39 -28 -29 29 -31 34 -33 44 -35 42 -37 37 -39 -40 -41 -42 -43 -44 -45 -46 -47 61 -49 -50 -51 -52 -53 53 -55 -56 -57 57 -59 -60 -61 -62 -63
leaf_value=-0.16905198737103475 0.14136768510859263 3.8214499702056255 0.0072384147966715095 1.301720990394724 -0.13168839620692391 0.25173141237848057 0.4670105072067065 1.2329665990976189 0.53039980067656589 2.4748281933012466 0.17367934446813446 0.80833654418587697 0.042090433804177943 0.68575146983970292 0.8701619468781413 0.1161713040471077 1.8226160029570264 0.20085488569563217 0.53643972992897038 0.19896304199336382 1.1694903632005056 2.1612165723528185 -0.080214007348914818 0.88674434366680333 0.080711239608476926 0.42514047724999149 1.0756943351692623 0.15909303004396741 0.67403141153710233 0.31089317949658091 -0.084032105327911583 -0.20166082695126533 -0.045169785872408358 0.32437970136050831 -0.025218110949458875 0.71285523160008113 0.64216845364406194 0.35926309484198238 0.35028923319787098 0.26405818844619006 1.6414443013844668 1.0440481911072357 0.25478196948766713 -0.12326857348311837 0.0076427550425237165 0.61090559242614395 -0.099897771032989885 -0.0059732916127642997 0.015090235182708099 0.062024508241998899 -0.12268856830568381 0.23425443175904179 0.98656440615653995 0.446761574173967 0.62952141243478532 0.35476472981666268 0.2331519351943451 -0.096285124518908569 0.37953892512754961 0.53631068438291551 0.092151523950425071 -0.056960399442331971
leaf_weight=4068 76 24 583 29 543 328 34 26 130 21 59 40 418 22 49 25 36 351 20 151 24 21 358 21 355 165 36 467 28 55 622 50 922 27 773 103 29 132 97 46 27 99 20 2964 1253 58 1822 657 303 378 770 27 25 30 23 38 34 32 33 20 55 1002
leaf_count=4068 76 24 583 29 543 328 34 26 130 21 59 40 418 22 49 25 36 351 20 151 24 21 358 21 355 165 36 467 28 55 622 50 922 27 773 103 29 132 97 46 27 99 20 2964 1253 58 1822 657 303 378 770 27 25 30 23 38 34 32 33 20 55 1002
internal_value=-0.00274472 0.88076 -0.0478183 0.809971 -0.0958468 0.161984 1.31904 1.04984 0.596046 1.70077 0.263196 0.747501 -0.0481723 0.425316 0.340297 0.474842 1.57534 0.299552 0.0725357 0.0677995 1.53982 1.65525 -0.142553 0.756317 0.157573 0.390166 0.884063 0.101892 0.308545 0.433398 -0.0703258 0.000699734 -0.00218249 0.0579166 -0.0631224 0.611056 0.370698 0.410221 0.23321 0.437648 1.46552 0.976218 -0.0181563 -0.115251 -0.0146774 0.473456 -0.071967 -0.0439347 0.0697849 0.101113 -0.161673 0.0172867 0.587779 0.673666 0.815481 0.476127 -0.0550013 0.0734249 0.213475 0.715801 0.228815 -0.0846629
internal_weight=21034 1021 20013 997 16285 3728 295 173 702 122 1749 372 8059 330 1011 235 62 776 1979 1959 101 77 8226 111 738 328 77 1299 192 83 5439 660 2620 445 4896 233 186 161 448 269 56 139 793 3388 2175 223 4103 1279 832 529 4838 610 138 78 48 60 424 66 109 41 383 2824
internal_count=21034 1021 20013 997 16285 3728 295 173 702 122 1749 372 8059 330 1011 235 62 776 1979 1959 101 77 8226 111 738 328 77 1299 192 83 5439 660 2620 445 4896 233 186 161 448 269 56 139 793 3388 2175 223 4103 1279 832 529 4838 610 138 78 48 60 424 66 109 41 383 2824
cat_boundaries=0 10 19 29
cat_threshold=0 536870912 64 804224 2281701377 8650752 92799554 6292553 16778242 32 2505056276 95253 131072 4096 134217728 16384 4368 537165824 2149580800 144 1048580 67109888 262144 202375168 50331648 167804928 4230667 170918034 2048
is_linear=0
shrinkage=0.05


Tree=16
num_leaves=63
num_cat=6
split_feature=3 3 3 12 12 3 3 3 2 8 8 3 3 3 9 14 14 3 17 16 17 2 16 3 13 3 3 17 1 13 2 12 2 5 3 8 9 9 9 8 17 3 2 3 13 9 5 17 5 9 2 14 5 9 9 2 9 5 19 9 8 16
split_gain=301015 71789.1 70838.4 27176.2 22071.4 13523.1 11947.1 11775 9555 6076.95 3697.78 3338.53 2758.52 2471.71 1892.62 1883.37 1746.49 1535.54 1466.57 1465.2 1379.09 1252.13 1247.18 1205.21 1160.7 1138.87 1076.53 1019.7 937.392 892.575 856.37 809.499 993.147 707.562 665.432 664.549 656.611 621.046 608.362 597.087 534.869 532.734 521.981 520.718 760.146 531.403 619.992 514.014 512.545 481.032 921.663 795.126 474.182 426.553 420.305 478.9 418.885 413.831 555.236 412.672 400.838 396.333
threshold=21.856031148185757 62.868984495988876 7.8573401398336484 2.5000000000000004 2.5000000000000004 37.500000000000007 12.572950214889188 2.4347122467534996 53.500000000000007 38.850000000000001 27.450000000000003 28.894209828023659 4.5717092941251112 36.07305169845386 -24.049999999999997 6.5000000000000009 6.5000000000000009 29.506336831294842 0 1.0000000180025095e-35 1 35.500000000000007 1.0000000180025095e-35 0.42847082949329574 1.0000000180025095e-35 49.126037145114928 15.732033321241502 2 27.00826700795141 3.5000000000000004 10.984104870321351 12.500000000000002 31.500000000000004 6.1653861946955493 10.859381586517399 12.350000000000003 12.450000000000001 3.0500000000000003 11.65 2.3500000000000001 3 23.865395119852916 29.500000000000004 17.148194965872221 4.5000000000000009 12.350000000000003 8.8437663075745601 4 9.4503715388679499 24.850000000000005 6.9882060491234999 6.5000000000000009 3.742005198794049 7.8500000000000005 17.650000000000002 9.9945578467938301 17.950000000000003 9.254342520570491 5 14.750000000000002 25.050000000000004 1.0000000180025095e-35
decision_type=2 2 2 10 10 2 2 2 2 8 10 2 2 2 10 2 2 2 9 2 9 2 2 2 2 2 2 9 2 2 2 10 2 2 2 10 10 8 10 10 9 2 2 2 2 10 2 9 2 8 2 2 2 10 10 2 10 2 1 10 10 2
left_child=2 4 7 -3 5 17 14 23 11 19 -5 22 47 -10 16 -11 -4 -2 48 43 33 54 35 -1 -13 31 -17 -22 -24 -7 -20 32 -26 37 -18 -6 42 39 41 -14 -25 -37 -33 44 -8 -45 -47 -9 -16 50 61 -51 -28 -32 55 -21 -55 -38 -59 -46 -35 -29
right_child=1 3 6 10 8 29 9 12 13 15 -12 24 20 -15 18 26 34 -19 30 21 27 -23 28 40 25 -27 52 49 -30 -31 53 36 -34 60 -36 38 57 -39 -40 -41 -42 -43 -44 45 59 46 -48 -49 -50 51 -52 -53 -54 56 -56 -57 -58 58 -60 -61 -62 -63
leaf_value=-0.16134279962250705 0.72666288263806933 3.364405916258693 0.028950936371867343 1.0771413774490357 -0.0052734322225054114 1.3696339308069303 0.071562433432433112 -0.026155806104144405 0.68284089206294585 0.15694762195449277 1.9137635924986431 0.87658252257567182 0.0024913286959583111 1.3520824672402565 0.12048555692391737 0.33528353532177241 0.15258157352457205 0.96346149011342619 -0.0078075490540602064 0.066567747170726457 -0.1175344454098553 0.59871487382512834 0.2705132935728346 -0.053199755512177954 0.92941130697727203 0.81088367184003196 0.30114613209640789 -0.077578259884395789 0.6497030633382308 1.6772682626505155 0.0040933483859171742 0.20461431201114211 0.45234093790253005 0.062893355743620885 0.27772138194270329 0.20977420120135598 0.69518821438153588 0.014554909994819343 0.20412437217655005 0.34792400971376181 -0.12638585955771101 0.51318077275004137 0.48840680047869683 0.26517934855369346 0.14750928558685161 0.20503921528057806 -0.013188030312840755 -0.085285792587243489 0.33744283258914948 -0.048067859048368786 0.0064388025788199845 0.049739661373369132 0.5096233940892545 0.15172523462667539 0.34348766299993244 0.24423320582388222 0.035500717183619038 0.6494255350394682 0.33379332760446956 0.36792209689478378 0.34195497081044224 -0.014539158143470008
leaf_weight=3377 187 32 261 25 24 65 373 439 22 83 28 26 22 37 294 227 390 108 949 51 320 26 28 320 20 30 31 1020 39 37 148 43 24 22 146 23 24 438 108 29 3896 39 26 126 54 87 52 3990 30 367 768 479 227 199 67 148 127 22 38 35 31 330
leaf_count=3377 187 32 261 25 24 65 373 439 22 83 28 26 22 37 294 227 390 108 949 51 320 26 28 320 20 30 31 1020 39 37 148 43 24 22 146 23 24 438 108 29 3896 39 26 126 54 87 52 3990 30 367 768 479 227 199 67 148 127 22 38 35 31 330
internal_value=-0.00261355 0.820507 -0.0460788 2.21382 0.698412 0.984949 0.138328 -0.094147 0.499887 0.245985 1.51913 0.430711 -0.0528126 1.10253 0.0711693 0.377035 0.135019 0.813355 0.0420403 0.172937 -0.0217148 0.26754 0.305251 -0.139085 0.560139 0.523894 0.4147 -0.0338751 0.491236 1.48123 0.0194685 0.48019 0.669191 0.0516375 0.186668 0.241019 0.425837 0.0337825 0.27579 0.198914 -0.121257 0.400627 0.311551 0.134939 0.102891 0.190812 0.1234 -0.0796765 0.136365 -0.0244783 -0.0372912 0.00731016 0.484574 0.0744889 0.23517 0.198701 0.106448 0.519715 0.449525 0.234188 0.226118 -0.0621687
internal_weight=21034 1055 19979 85 970 397 4131 15848 573 1587 53 514 8255 59 2544 568 797 295 1747 1019 3826 292 261 7593 253 227 485 3284 67 102 1423 197 44 542 536 194 153 489 170 51 4216 62 69 727 462 265 139 4429 324 2964 2118 846 258 474 266 199 326 84 60 89 53 1350
internal_count=21034 1055 19979 85 970 397 4131 15848 573 1587 53 514 8255 59 2544 568 797 295 1747 1019 3826 292 261 7593 253 227 485 3284 67 102 1423 197 44 542 536 194 153 489 170 51 4216 62 69 727 462 265 139 4429 324 2964 2118 846 258 474 266 199 326 84 60 89 53 1350
cat_boundaries=0 9 18 28 37 47 48
cat_threshold=2048 8519688 287309833 1107298320 2097152 263424 4194468 327680 67108864 1365581826 5152 688128 4096 139460608 16400 34078736 538214400 2148550656 0 0 192 2105344 66 0 2214592576 4408331 52560932 2 16 135266304 0 0 202375172 553648128 134225920 4206154 151011344 545262601 0 2164425344 1073741824 18432 2097152 2281701632 69632 268862220 2 2
is_linear=0
shrinkage=0.05


Tree=17
num_leaves=63
num_cat=3
split_feature=0 0 0 0 0 4 10 1 9 4 1 8 0 17 4 17 2 4 4 4 4 8 15 2 10 0 2 0 6 6 0 14 1 4 9 13 4 0 0 2 4 4 4 1 0 14 8 0 8 14 10 1 6 18 2 4 9 2 4 4 4 8
split_gain=273903 71989.8 63228.1 28325.9 11582.5 10610.9 7522.53 8002.8 4618.05 6141.42 4327.82 4660.74 3574.57 3363.85 2769.57 2738 2691.38 2344.7 2340.72 2307.93 2237.06 2644.68 1791.96 1740.19 3728.56 1417.56 1404.59 1345.21 1112.74 1070.2 1059.89 1012.07 1010.13 989.357 961.605 935.298 899.911 873.932 824.869 822.519 774.155 762.809 702.79 696.942 676.093 643.738 614.223 752.607 595.89 737.631 563.129 575.176 551.791 527.619 729.276 522.37 670.064 521.473 518.158 516.027 506.32 494.549
threshold=27.00826700795141 118.00000000000001 8.0049188670855091 49.056077306673735 15.000967554649963 4.1787377518496358 1.0000000180025095e-35 65.500000000000014 9.1500000000000004 18.043730123016452 46.130969713362042 38.250000000000007 1.9394095424530313 0 15.044436750993073 1 43.500000000000007 15.044436750993073 22.980046674614474 11.396375559040694 16.727034576287284 35.850000000000001 2015.5000000000002 50.500000000000007 1.0000000180025095e-35 19.990509800513596 10.984104870321351 1.9995826824576326 0.85999998450279247 0.71000000834465038 35.876596660750785 6.5000000000000009 18.674431921070632 24.050504344358121 6.5500000000000007 4.5000000000000009 7.5618003180114934 76.302575100949767 10.295616461927553 41.500000000000007 28.048639440758958 8.7507072512227655 10.071455803064531 19.535333145782129 43.053268238134031 6.5000000000000009 36.650000000000013 4.4461238785765973 25.650000000000002 4.5000000000000009 5.2500000000000009 16.006081066642185 0.99500000476837169 2 3.948998291430684 9.9671407066626951 9.1500000000000004 6.716019041039698 1.2502662526213213 9.8729383707451266 7.4643076303420592 34.45000000000001
decision_type=2 2 2 2 2 2 10 2 10 2 2 8 2 9 2 9 2 2 2 2 2 8 2 2 8 2 2 2 10 10 2 2 2 2 10 2 2 2 2 2 2 2 2 2 2 2 8 2 10 2 10 2 10 1 2 2 10 2 2 2 2 8
left_child=2 3 5 10 19 12 7 8 9 57 11 18 58 25 30 17 -8 55 28 22 21 29 35 24 -12 -6 37 -17 59 60 41 -24 -27 -21 -30 -4 -29 -11 -33 50 -28 -13 -37 -16 48 -23 -14 -48 49 -20 51 -22 -45 54 -31 61 -57 -5 -1 -2 -15 -7
right_child=1 -3 4 6 13 15 16 -9 -10 26 23 14 46 20 43 27 -18 -19 44 33 39 45 31 -25 -26 32 40 36 34 53 -32 38 -34 -35 -36 42 -38 -39 -40 -41 -42 -43 -44 52 -46 -47 47 -49 -50 -51 -52 -53 -54 -55 -56 56 -58 -59 -60 -61 -62 -63
